<?xml version="1.0"?>
<opencv_storage>
<opencv_ml_svm>
  <format>3</format>
  <svmType>C_SVC</svmType>
  <kernel>
    <type>LINEAR</type></kernel>
  <C>0.01</C>
  <term_criteria><epsilon>1.1920928955078125e-07</epsilon>
    <iterations>1000</iterations></term_criteria>
  <var_count>3780</var_count>
  <class_count>2</class_count>
  <class_labels type_id="opencv-matrix">
    <rows>2</rows>
    <cols>1</cols>
    <dt>i</dt>
    <data>
      0 1</data></class_labels>
  <sv_total>1</sv_total>
  <support_vectors>
    <_>
      -0.0151747707 -0.00788845122 -0.00233260612 0.00101989601
      -0.000783733092 -0.00064806419 -0.00150477176 0.0148344329
      -0.00396232167 -0.0096559003 -0.00576607883 -0.00224322313
      0.00289394078 -0.00161831989 0.00261300686 -0.00300703477
      0.0135553069 -0.000267848809 0.00305031822 0.00202861684
      0.00359368254 0.0078248363 0.000838092121 0.000635962875
      -0.00908814277 0.00150275591 0.00324287592 -0.000305984024
      0.00131162652 -0.00161848578 0.00454321038 0.00456281845
      0.00756693725 -0.00224125176 0.0118592232 0.00934064854
      -0.0123471059 -0.00823347736 -0.00471982919 0.00165658456
      0.00301394425 0.00225910172 -0.00444235839 0.0153341768
      0.00108646415 -0.0186375342 -0.0109258695 -0.00841463637
      0.0021939273 -0.00177840935 0.00188335648 -0.00404284894
      0.0161553212 0.000916698773 -0.00135978137 -0.00404127454
      -0.00339513062 0.00733721815 0.00691549666 0.00675238995
      -0.000626868685 0.0131911868 0.00843231753 -0.00636832602
      -0.00237281038 -0.0045128935 0.00519367214 -0.0036759486
      -0.00481575169 6.88088767e-05 0.0156023502 0.00199903059
      -0.0189407691 -0.00966062397 -0.00653800182 0.00299594831
      0.00174987095 0.00181432569 0.00142607756 0.0254153404
      0.000401230704 -0.0175814517 -0.0109142158 -0.00781628862
      -0.00263177208 -0.00910469331 -0.00425578514 0.00241879956
      0.0292837918 0.000883928325 -0.00183472235 -0.000990322675
      -0.000210335711 0.00824921392 -0.000432110421 -0.000231089143
      0.00459089968 0.0222706646 0.00320975203 -7.7126715e-05
      -0.00145530363 -0.00541186379 0.000477200956 -0.00707812142
      -0.00318136578 0.00101149536 0.0194981899 0.00820638519
      -0.0136080636 -0.0112510119 -0.00942169037 -0.00546184229
      -0.0083412556 -0.00392667996 0.00594900362 0.0328385644
      0.00177272491 -0.0126852598 -0.00842931867 -0.00766407745
      -0.00641745655 -0.00991520938 -0.00366500928 0.0129113831
      0.0274395458 -0.00220853905 0.000761628791 -0.00156868517
      -0.00821002666 -0.00348961586 -0.0108123953 -0.00519184954
      0.000498212758 0.0200854372 0.00939953048 -0.00398167223
      -0.00335011329 -0.00888688862 -0.00595021201 -0.0141680669
      -0.00600451231 0.00430514896 0.0210620295 0.00651300605
      -0.012108908 -0.0054501188 -0.0063793282 -0.00436661951
      -0.00979749672 -0.00203862344 0.0200049113 0.0301467273
      -0.00757048512 -0.0202385653 -0.0107513228 -0.00879424158
      -0.0039307815 -0.00824517757 -0.00183772598 0.0258012675
      0.0310263019 -0.0118547548 -0.00931373145 0.000630693743
      -0.00572380377 -0.00362170348 -0.0101397559 -0.00442224694
      0.00700847059 0.0273842663 0.00120372372 -0.0120903458
      -0.00797900651 -0.00792557932 -0.00357627333 -0.0120661529
      -0.00481876405 0.0169736985 0.0315519013 -0.000944172847
      -0.0176381953 -0.00524616521 -0.0020076239 -0.00132180715
      -0.0026350792 -0.000530559395 0.0268546585 0.0296389945
      -0.0136154275 -0.0171978995 -0.00503248861 -0.00529036671
      -0.005927091 -0.0044398387 -0.0022874719 0.0287377648 0.0272353571
      -0.0164265931 -0.00493936893 -0.00534506002 -0.00337987905
      -0.000449962361 -0.00636265893 -0.000827570911 0.025487341
      0.0306066386 0.00185418339 -0.00941777881 -0.0054013785
      -0.0131256133 -0.0062152911 -0.0129133575 -0.00407441147
      0.019828653 0.0208722223 -0.00836886279 -0.00976549834
      -0.00458365772 -0.00390963117 -0.00439679716 -0.00170406734
      -0.000228131437 0.0327474326 0.0269125514 -0.0116899908
      -0.00211189804 -0.00457621226 -0.00523697725 -0.00603425037
      -0.00511027919 0.00303216069 0.0279071108 0.0248448532
      -0.00440542819 -0.00784662832 -0.00408668444 -0.010961784
      -0.00514605315 -0.00894145016 -0.00361227058 0.0180891622
      0.0195661243 -0.00984073151 -0.0044796248 -0.00883151405
      -0.0122224623 -0.00785743445 -0.0089255143 -0.0010511619
      0.0171136875 0.0194889195 -0.00721402513 0.00403091591
      -0.00202003028 -0.00448862975 -0.00642172527 -0.00765196467
      0.00303479494 0.0205702577 0.0161310099 0.000784649339
      0.00549118174 -0.000404350605 -0.0040212851 -0.0100075519
      -0.00786145497 0.004565401 0.0164862126 0.00914753042
      0.00133733684 -0.00631502876 -0.00747153349 -0.00787071325
      -0.007414422 -0.0102457115 -0.00237140455 0.013970389 0.0162062272
      -0.00140224129 0.000131124267 -0.00254237279 -0.00817282125
      -0.015928112 -0.00930079538 -0.00126804574 0.0130758928
      0.016777683 0.00065278454 0.00296795066 -0.00274157408
      -0.00983909238 -0.00811821595 -4.34174581e-05 0.00573805254
      0.0112062646 0.0036497612 0.00176607224 -0.00399901997
      -0.00385537744 -0.0105422437 -0.00552186463 0.00648277532
      0.010235521 0.00930339843 -0.0030910871 -0.00545583572
      0.00693429308 0.000263501162 -0.0107352613 -0.0129952161
      -0.01032947 -0.00106836297 0.0119891306 0.0110112308 0.0103087053
      0.00579643529 -0.00294532417 -0.0112586524 -0.0141550004
      -0.0070637092 0.00440208148 0.0147721861 0.00863054674
      0.0102671729 -0.00737130083 1.35599066e-05 -0.00543393521
      -0.0008021057 0.0160952024 0.0105762202 0.00715664914
      -0.000580181135 -0.00958305225 -0.00272369152 0.000436900096
      -0.00084414077 0.00805849489 0.00954847597 0.0106145423
      0.0030812344 0.00151506497 -0.00237075472 -0.000791345607
      -0.00097781478 -0.00738386763 -0.00615545269 0.00322933309
      0.00450288365 0.00654384214 0.00289377477 0.00143939047
      0.00155421544 0.00017165282 -0.00433318177 -8.32620717e-05
      0.00772263855 0.00711651566 0.00827078894 0.00633866386
      0.00871455763 0.002339317 -0.00319789955 0.00449345261
      0.0063287192 0.0133868651 0.00347515242 -0.0011842231
      -0.00465169549 0.00286115473 -0.00609965995 -0.00592334941
      -0.00318609318 0.00739706354 0.0141479308 0.00330240419
      -0.00377678918 -0.00960376486 -0.00730475923 -0.000126394618
      -2.16242624e-05 -0.00067983265 0.000577656843 0.00569069479
      0.00574722514 0.00372683816 0.00477031898 0.00443349825
      0.00195003813 0.0026763042 -0.00249050255 0.00103488553
      0.00102766452 0.00522771152 0.00102174084 -0.00394002628
      -0.0031262571 -0.0120367398 -0.00209197449 -0.00424144883
      0.00737580238 0.0156965666 0.00739151193 -0.00361905969
      -0.00547709549 -0.0140007129 -0.0168560725 -0.00542381033
      -0.00336796441 0.00162592914 0.017760409 0.0147896614
      -0.000249886274 -0.00401699729 -0.0159946028 -0.00161061191
      0.0103616398 0.00100806437 0.00561565161 0.00284261745
      0.00548810279 0.00210014591 -0.00125039322 -0.00591499871
      -0.00596328499 0.0074140504 0.000689206528 0.004605358
      0.0159903094 0.0139031094 0.00101505138 -0.00021937392
      -0.0054227435 -0.0186387561 -0.00590038951 -0.00211150013
      0.00395719614 0.0164103936 0.0163533632 0.00432038726
      -0.00158751628 -0.0193201955 -0.0176615026 -0.00375478808
      0.00115540891 0.00668416126 0.0133200921 0.0107852966
      0.00841667224 -0.00116477464 -0.0198059734 -0.00592980534
      0.00287262839 0.00273690931 0.00988268014 0.015502058 0.0143587263
      0.00531495921 0.000450987718 -0.00883174315 -0.00429905998
      0.0067542973 0.0111878607 0.0189859625 0.0216644164 0.0153957726
      0.00434740353 0.00264065969 -0.00612809509 -0.0216861833
      -0.00257342006 0.00553169753 0.0073871105 0.00715337973
      0.00268938229 0.00203786953 -0.00374316517 -0.0224350709
      -0.0164704286 0.00155161205 0.0106371315 0.00136141444
      0.0132852895 0.012922558 0.0044711451 -0.00344576477 -0.0165229384
      -0.000806303171 0.00956250541 0.0130329123 0.011763352
      0.00635575084 0.00476090005 -0.00163817604 0.00198552338
      -0.00864854455 0.0123905642 0.0193115063 0.0189248491
      0.00838484801 0.00582208624 0.0115021365 0.0087601468
      0.00751283253 0.00316722598 -0.013850891 0.00101099524
      0.00732228532 -0.00260526617 0.00521684997 0.00796046946
      -0.00838590227 -0.0132570248 -0.017690327 -0.0111342743
      -0.000580118503 0.00437633228 -0.0023696837 0.023638634
      0.0205975808 -0.00798445567 -0.0142751411 -0.0173952039
      0.0112341708 0.0147403618 0.0135667911 -0.00258335751
      -0.000455159723 0.00356500759 -0.00593229104 -0.00486340187
      0.00282370811 0.00517455069 0.00432130462 -0.0010849979
      -0.00587725034 0.0146791441 0.0200102814 -0.00614031451
      -0.010828834 -0.00490833167 0.0152890319 -0.00531242415
      -0.00334396097 0.00308667775 0.000601447129 -0.00252393004
      -0.00900063477 -0.00495864265 0.0126147568 0.00690920744
      -0.00490322663 -0.00742534595 -0.00316231069 0.000209525839
      0.00436969148 -0.00585519429 0.00200128625 0.00699596619
      0.0094476128 -0.00976604223 -0.00706817582 0.00120935484
      0.000798917259 -0.00324760377 -0.00745621417 -0.00609340053
      0.012569108 0.00307201454 -0.00665200129 -0.010150806
      -0.00541217392 -0.00251457933 0.00157617894 -0.00479397038
      -0.00502905808 0.000917781843 0.00685629621 -0.00415951572
      -0.00288046198 0.0032427921 0.0063224677 0.00549722649
      -0.00173729996 0.00622654939 0.00538673857 0.0025094524
      -0.00371038425 -4.19765602e-05 0.00452873716 0.000767056074
      -0.000577585946 -0.0012389801 0.0095769288 0.0033635709
      0.00272657443 -0.00637038145 -0.00750546344 0.00180547836
      0.00160079775 0.00470727263 -0.000519616879 -0.00138177548
      -0.000831137295 -0.000986864208 -0.00761076109 -0.00772790005
      -3.42489329e-05 -0.00579389092 0.000794983061 -0.000667012413
      0.0020845395 -0.00293237064 0.00748286024 -0.000329489965
      0.000384485815 0.00844715163 0.00181979022 0.00162701984
      0.00327807153 0.016403133 0.00660111662 0.0074492353
      -0.00209380011 -0.00879808422 0.000268590724 -0.0077723288
      -0.00139316288 -0.000861935318 0.0111072082 0.01040613
      0.00401997706 -0.00164375757 -0.00350877293 0.00301886932
      -0.00217143702 0.00395994075 0.00118329236 0.00678410893
      0.00310289557 0.00489580631 -0.00212883414 -0.00621094741
      -0.00376956258 -0.0106516872 0.000774299842 -0.000777091365
      0.00307418522 0.00376830832 0.0106020346 0.0014747706
      -0.00760362484 -0.00200900249 -0.00746559678 -0.00160332641
      -0.00459918147 0.00854416844 0.0124261938 0.00691521121
      -0.00104546011 -0.00670083845 -0.00199616957 -0.00686897757
      -0.00125436194 -0.00185267476 0.0106807575 0.0114619052
      0.00512066949 0.00111987279 -0.00251743919 -0.000265320588
      -0.00335767725 0.00316896732 -0.00143406284 0.00351079809
      0.00297358586 -0.00563065056 -0.00906401407 -0.00668146415
      -0.000126415063 -0.000416629307 0.0075215362 0.000584280759
      0.00277961884 -0.00446613273 0.00545438379 0.00114241627
      -0.00337926508 -0.000984731596 -0.00357568497 -0.000301637716
      0.00283139758 0.0163626894 0.00879963767 0.00341318408
      -0.00406503165 -0.00513151055 -0.00219717319 -0.00780708296
      -0.00371996523 0.00254331599 0.0233716294 0.00834087562
      0.00132167584 -0.00652954122 -0.00548609952 0.00202218746
      0.00143200473 0.00547961285 0.0023302387 0.00975326076
      0.000472789106 -0.00078413327 -0.00465321029 -0.00182099966
      0.0024533309 -0.00151986361 -0.000752871973 -0.000277783867
      0.0116994148 0.00159653358 0.00734951627 -0.0020130279
      -0.0035356544 -0.00189955276 -0.00406461954 -0.00104825944
      0.00836787559 0.0230362974 0.0104351845 0.000414858165
      -0.00673141796 -0.0124975229 -0.00589953456 -0.0131838489
      -0.0113126272 0.00844233856 0.0157985371 0.00587541843
      0.00655911583 0.00310413446 8.64122194e-05 0.00283150864
      0.000750428415 0.00135817379 0.00325337704 0.0108779408
      0.00702068117 0.00187946984 -0.000350551651 -0.00352870859
      -0.00426580943 -0.00870853662 -0.0113742007 0.000376013893
      0.00979909301 0.00627333391 0.00658943132 -0.00261985091
      -0.0085339183 -0.00402449956 -0.00883687567 -0.008375993
      0.00850410387 0.0157557856 0.00628494518 0.00528617809
      -0.0032597254 -0.00653062621 -0.00436414359 -0.00472825905
      -0.00495338254 0.0026724895 0.0109734153 0.00154718175
      0.00383943203 -0.00126728206 -0.00378523348 -0.00373050896
      -0.00535849808 -0.00787867419 0.00607161503 0.0142914001
      0.00675449241 0.000632351788 -0.00385365845 -0.00547306379
      -0.00601067534 -0.00418770732 -0.00315792183 0.00957356673
      0.0117953112 0.000480436487 0.0025443749 -0.00477687456
      -0.0021036102 -0.00182392588 -0.000809912104 0.000237992062
      0.00887041632 0.0100431386 0.00143009017 0.000656935095
      -0.00260715024 -0.00195062475 -0.00214517768 -0.00165109313
      -0.000304487941 0.0121144913 0.00855853688 9.28857116e-05
      -0.00167277222 -0.00336680771 -0.00279249041 -0.00310296915
      0.00216609566 0.00345512503 0.0113385199 0.0116551528
      -0.00223681564 -0.00434753299 -0.00179751823 -0.000261959038
      -0.00197324785 -0.000648653717 0.00100238516 0.0140569676
      0.00930721965 -0.000476553541 0.00307939644 -0.000133724141
      -0.00527653145 -0.00534365 -0.00547253527 0.00246825023
      0.0122010577 0.00819496065 0.00342288706 0.00705487514
      -0.00206773984 -0.0045233001 -0.00864142738 -0.00517390482
      0.00500064902 0.0153964283 0.013886774 0.0114627769 -0.00381039781
      -0.000989740947 -0.000266794406 -0.0046405429 -0.00423698453
      0.000137453259 0.0101602646 0.00417313958 -0.00161406421
      -0.00558707351 -0.00103942701 -0.00324380375 -0.00695805345
      -0.00732619083 -0.00253620581 0.00701293908 0.0107917553
      0.0015820507 0.0047513484 -0.000258637505 -0.00316423248
      -0.00576203782 -0.00144995097 0.00416107895 0.00710464176
      0.0101916799 0.00953719392 0.00343683013 0.00587231293
      0.000346484216 -0.00538215879 0.00306831393 0.00585802365
      0.00400821166 0.0083242422 0.00455521001 -0.0110173002
      -0.00159969681 -0.0041923942 -0.00717598479 -0.00429681549
      0.0023753501 0.00390501623 0.00704146549 -0.00452236691
      -0.00614082487 0.00478102686 -0.000813194842 -0.0104221497
      -0.00207168423 0.000650314672 -0.00203274307 0.00124538888
      -0.0064073028 0.00350040151 0.00175925484 -0.000818985456
      -0.00482322462 -0.00206150371 0.000604558561 0.00245480076
      0.0048603965 0.00032649294 0.0124168042 0.00248211971
      -0.000468936487 0.000948235684 0.00131926965 0.000143024183
      -0.000550752215 -0.000839075481 0.00291866576 -0.0026367649
      0.00546075404 0.00322652864 -0.00526661146 -0.00505565153
      -0.00741091976 -0.00931048673 -0.00769527396 -0.00470221741
      0.00333757489 0.00688542798 0.0117775043 0.00835555047
      0.00303293508 -0.00315333111 -0.0100096269 -0.0129233161
      0.000572763965 0.00122405274 0.00104027102 -0.00155911944
      0.00512680365 0.00486952625 0.000988432788 -0.00122882007
      -0.00295713777 -0.00296241487 -0.00164402602 0.000489900762
      -0.0008358864 0.00211816584 0.00891903788 0.00187285489
      -0.00318224635 -0.000994659145 0.00113643368 -0.00507707288
      -0.00154606625 0.00384126417 0.0108596245 -2.69700831e-05
      0.000599723659 -0.0107561331 -0.0144306142 -0.00685310131
      0.000997123308 -0.0012465436 -8.55327235e-05 0.00553699071
      0.007128458 -0.00120454002 -0.00687518064 -0.00837600045
      0.000635070959 -0.00457852287 -0.00189976231 -0.00135839405
      0.00313537335 0.00786223449 0.000727842911 -0.00670070015
      -0.00403807219 -0.00353567535 0.00179649319 0.00857042614
      0.00583239412 0.00995737314 0.00832289364 0.0025067965
      -0.00374867558 0.000202282507 -0.00197993126 -0.000739364885
      0.00114685681 1.91591789e-05 0.00382865663 0.00722092902
      0.00237113261 -0.00661068037 -0.00700365752 -0.00170315069
      0.00231490168 0.00962665956 0.00826715026 0.00759759732
      0.00696941698 0.00458122464 -0.00109563407 0.00295537524
      0.00302715413 0.00484337984 0.0136618549 0.00973812491
      0.00820540451 -0.000460312964 0.000649484864 -0.00371348835
      0.00250337087 -0.000981281395 0.0103279194 0.0182491485
      0.0111780567 0.00167047873 -0.000181644529 0.00425628526
      0.00116008928 0.00131157727 0.00152429868 0.00775288325
      0.0123299779 0.00872852467 0.00590657862 0.000385007617
      0.00191257044 -0.0020799418 0.00394603098 0.00585439522
      0.00343341311 0.00779815111 0.00379194738 0.000100436002
      0.000314923091 0.00405163877 -0.00511728832 0.00110845885
      0.00253573526 0.0107551925 0.0157295167 0.00466041919
      -0.00612355769 -0.00036629659 0.00503438013 -0.00281084725
      -0.00169367006 0.00388718839 0.00580292335 0.00760384137
      7.59758914e-05 -0.00668018963 0.010215871 0.0179011505
      -0.00474422751 -0.00568145374 -0.00241587381 0.00122015772
      0.00522841606 0.00093274971 -0.00658953562 0.00235460838
      0.00638070656 -0.00558830891 0.00532691227 0.00138853642
      -0.00432525482 0.000527901982 -0.0024352856 -0.00680298405
      0.00766500598 0.0171766412 -0.00419980986 0.0029509312
      -0.00435041357 0.0132134026 -0.00479774503 -0.00349987857
      -0.00122895825 -0.0021726836 -0.000483211043 -0.000864984351
      -0.00247916742 0.0171862654 0.00204755738 -0.00715492107
      -0.00644854177 -0.00274587795 -0.00304266601 0.00303864153
      0.000403994083 -0.00528920675 0.0014856304 0.0110118939
      -0.0051948484 -0.00562639441 -0.00561670493 -0.00942852348
      -0.00419382378 -0.0022362587 -0.00157894602 0.0115642101
      0.00247487333 -0.00807375461 -0.00897505227 -0.00674491003
      -0.00639655301 -0.00171097461 -0.00360124954 -0.00443623448
      0.00490493374 0.00640037283 -0.00601660041 -0.00515791122
      0.00123603304 0.000306804461 0.00288479845 0.00147411553
      -0.00314480648 0.00277715153 0.00624950789 -0.00547005143
      -0.00493253209 0.0011686876 -0.00446581934 -0.00140110962
      -0.000903509557 -0.00236801244 0.00255061802 0.0119207939
      -0.0043126354 -0.00737009663 -0.004476259 -0.00732979877
      -0.00353194331 -0.00403686613 -0.00260828342 0.0108838426
      0.0115672462 -0.00269120443 -0.00403857278 -0.00295902812
      -0.00792772789 -0.00639863126 -0.00562447077 -0.00446029659
      0.00954827946 0.00429388555 -0.00469904114 -0.00278426521
      0.00670219725 0.0045277155 0.00345026306 0.00128664693
      0.000879440806 0.00507760653 -0.00202878774 -0.00284172595
      -0.00324895768 -0.00334300403 -0.002077115 0.00192908698
      0.00093306863 0.00146899698 0.000594442361 0.0145975286
      2.92100613e-05 0.00203241687 0.0039294525 0.00383675867
      0.000480029557 -0.00165692857 -0.00237231795 0.00835530926
      0.00310446997 -0.00111777429 -0.00444915239 -0.00700675137
      -0.0170671046 -0.00422353996 -0.00299690966 -0.00343150995
      0.000491862476 -0.00378366234 0.000280252803 0.00391181279
      -0.00250527426 0.00219313614 0.00426681899 0.00416945061
      0.00364008243 -0.00233984436 -0.00661086477 0.000632815005
      0.00271193334 -0.00240350491 0.00289244205 0.0121791037
      0.0055780448 0.00619261852 -0.00400294457 0.000335651333
      0.0047499584 0.00115363102 -0.00732268859 -0.00534486258
      -0.00178321882 0.00313884346 0.00442714151 0.000613492215
      -0.00157155271 0.00630647736 0.00158988649 -0.0041856016
      0.00118233089 0.00799873099 0.006343293 0.00414658943
      -0.000789860555 -0.00292756245 -0.00105274969 -0.00050511444
      0.00195337064 0.00434732577 0.00934782438 0.0058693951
      0.00920074526 -0.00481848698 -0.00281487498 0.00312287989
      0.00217273389 0.0039602234 0.00552833034 0.00320896762
      0.00244411384 0.00862911157 -0.00497801416 -0.00497080805
      0.00273323478 0.00232632109 0.000465728197 0.00646207156
      0.0093736751 0.00624875957 0.00178501278 -0.00807433669
      -0.00846792199 0.00439329352 0.000304827816 0.000823519018
      0.00891998876 0.0075646583 -0.00416302169 -0.00218779477
      -0.00923383329 0.000639626523 0.00691260351 0.00476032263
      0.00794413779 0.012716596 0.00769901322 0.00705167511 0.0103627294
      -0.00418673735 -0.00607609516 0.00210812502 0.000496118621
      0.003397936 0.00867455173 0.00379728875 0.00489929039 0.0067877844
      -0.0111612156 -0.00989281572 0.00576508511 0.00267175864
      0.00552130723 0.0139383161 0.0100535052 0.00142500852
      0.00325009204 -0.00977107603 -0.0150875887 0.000376207929
      -0.00170202344 0.00535848597 0.015089442 0.0080356542 0.0017668854
      -0.000923572457 -0.0124962013 -0.00258121989 0.00165330642
      0.000511558144 0.00348438811 0.0108157527 0.00359383551
      0.00578545686 0.00740406569 -0.00384304277 -0.00541656138
      -0.00203783531 -0.00311649055 -0.000123520542 0.00986627582
      0.00402972987 0.00645393226 0.00573434075 -0.00337357027
      -0.0086544482 0.00142224948 -0.00256818719 0.00905498024
      0.0212243255 0.0122701721 -0.00117251906 -0.000232287741
      -0.0040503568 -0.0143172424 -0.00433860486 -0.00523533253
      0.00476963492 0.0170103461 0.00599907199 -0.00138115662
      -0.00372843468 -0.00832408387 -0.00087137532 0.000675209216
      -0.000895893318 -0.000389389199 0.0103270542 0.00932906847
      0.0120460009 0.0108819855 0.000137871175 -0.0022189205
      -0.00105899607 0.000466043391 -0.00382565078 0.00487558357
      0.00613220967 0.0121944761 0.0108350487 5.01876857e-05
      -0.0130564487 0.000318579172 -0.00093428907 0.00408415869
      0.016893927 0.00872701034 0.00468790252 0.00155245408
      -0.00903687719 -0.0109900916 -0.00282716868 -0.00623542164
      -0.00482228212 0.00892833527 0.004241677 0.00522044068
      0.00535108196 -0.0114377746 0.00276490487 0.00115530204
      0.00407545548 -0.000386656029 0.00431953836 0.00424536411
      0.0138178412 0.0124299033 0.00597140566 0.00148004643
      -0.00024843312 -0.0017573993 -0.00501592131 -0.0025273955
      -0.000578889158 0.00910086278 0.0139938183 0.00697383191
      -0.0103950026 -0.0023047924 -0.00380476564 -0.000415774557
      0.00559410173 0.000760288967 0.00573448697 0.00667420495
      -0.00756861828 -0.013491285 -0.00771845505 -0.00958118215
      -0.0084197456 -0.00163009786 -0.00257286639 0.00404271483
      0.00489938725 -0.00280535128 -0.000117770673 0.00379527989
      -0.000556361279 -0.00471184263 -0.00138292508 0.00535849202
      0.0101832869 0.0131623438 0.00325383339 0.000617483689
      0.0122942291 0.00461552525 -0.00215851399 0.00413789088
      0.00856490433 0.0125551876 0.0141240573 0.00170531648
      -0.0159724522 -0.0075138812 -0.00886280369 -0.00818800274
      0.00229523936 -0.00135163893 0.00233781175 0.00170391751
      -0.0103317052 -0.00888455473 -0.00347097963 -0.00306330156
      -0.0025697418 0.00459803268 0.00306633697 0.00638557924
      0.00778347626 -0.00584304472 -0.00277401996 0.0067885844
      0.00531648193 -1.54585064e-06 -0.00236578449 -0.00276783179
      -0.00217178045 0.000924999651 -0.00106029597 0.00710806577
      0.0117647983 0.014838268 0.00752712879 0.00593916047 0.00516711175
      0.00196767179 0.00182506815 0.00692027714 -0.0113082351
      -0.00438547693 -0.00158784527 -0.00379708735 -0.00536639895
      -0.00335726282 -0.00451743789 0.00091131794 -0.00919743348
      -0.00183686404 0.000596308848 0.00577964075 -0.00456606084
      -0.0012086645 0.00178362289 0.00178708718 0.00509611052
      -0.00224659801 -0.00293753413 0.00249690842 0.00609809812
      0.00447467528 0.00131541106 0.00437706849 -0.0028178175
      -0.00257867854 -0.00174648978 0.00158303976 0.00102467649
      0.00126704224 -0.000604256988 0.0129766483 0.00506279245
      -0.000629981922 -0.00265868451 0.00440038741 -0.00464937417
      -0.000919527432 -0.000881561486 -0.0121782459 -0.00678485259
      -0.0037969246 -0.004366735 -0.000365303102 -0.0064287493
      0.00229066727 0.0017790061 0.00276879338 -0.00236546481
      0.00959526561 0.00559885707 -0.000820415793 0.00303336326
      0.00258249487 -0.00287504122 -0.000686398882 -0.000477478054
      -0.00155790953 0.00725669321 0.00452280091 -0.0026441887
      -0.00165685255 -0.000794940803 -0.00132351939 -0.000508009631
      0.00291402545 0.00212476542 0.00855856948 0.00411169045
      -0.00170897716 0.00242769555 -0.000425744453 -0.00481465831
      -0.00359977968 9.77419259e-05 -0.000311927928 0.00640577264
      0.00745224766 -0.00125487417 -0.001531146 -0.00158961304
      -0.00438095536 -0.0015868356 -0.000333058793 -0.00122919073
      0.0052066939 0.00768021354 -0.00288333464 0.000559880224
      0.00520882756 0.00705891149 0.0012210781 0.00417855615
      0.00153018534 0.00520427572 0.0012271438 -0.00504051987
      0.0050907149 0.0070164986 0.0023116183 -0.00248191133
      0.000112493719 0.00282405294 0.00246524764 0.0030930452
      -0.00760675361 0.00824039802 0.00752964104 -0.00316150463
      -0.00136729295 -0.00277851126 -0.00438398216 -8.91255331e-05
      0.00309113483 -0.00272058276 0.00550504774 0.00831164978
      -0.00795706827 -0.00497083087 -0.00287603028 0.000658669276
      -0.00156929519 0.00205771206 -0.00187445676 0.0058421623
      0.00374435703 -0.00507889269 -0.00360575947 -0.00223787199
      -0.00386875821 0.00276890839 0.00393252773 -0.00839636289
      0.00764704961 0.00482779369 -0.00918426365 -0.00376048521
      -0.00319505949 -0.00415893923 0.0101177171 0.0148468856
      -0.00465896772 0.00805016886 -0.000501144561 -0.00827942695
      -0.00452219183 -0.00560103543 -0.0031145406 -0.000836959167
      0.00412014499 -0.00410157116 0.00265714456 0.00406463258
      -0.00549355848 -0.00335816504 -0.00419896003 -0.00183487916
      0.00979580823 0.0126980878 -0.00410441263 0.00462863687
      0.00262942608 0.0172739644 -0.00277723325 -0.0054045585
      -0.00709633483 -0.0118039493 -0.00618542871 -0.00204914203
      0.00282725086 0.0160422865 0.0131730828 -0.00188475824
      -0.00762394257 -0.00577658601 -0.0096555436 -0.00562676461
      -0.00414249161 0.00218978175 0.015382654 0.00336960005
      -0.00753685273 -0.00632174592 -0.00666605309 -0.0122875636
      -0.00923162885 -0.00714350305 -0.00758893508 0.00147266209
      0.0014192391 -0.0112041375 -0.00907832384 -0.00626405235
      -0.015260445 -0.00951220933 -0.0116950348 -0.0117042884
      -0.00254279049 0.020025339 0.000709771935 -0.00527356239
      -0.00395259261 -0.00715242 -0.00457141222 -0.00434839027
      0.00128074468 0.0216726828 0.0213907808 0.00225249305
      -0.00525121624 -0.00673513813 -0.00781193329 -0.00622246554
      -0.00429824227 0.00119669747 0.017747229 0.00334340008
      -0.0105351564 -0.00674433541 -0.00411780924 -0.0103497803
      -0.00655498356 -0.0104615977 -0.0143243298 -0.00329932105
      0.00193976925 -0.0159824044 -0.0140934121 -0.0107675344
      -0.0089639565 -0.0106021287 -0.0120487362 -0.0146361832
      -0.00410987949 0.0225865971 0.00491896644 -0.00312534557
      -0.00586044416 -0.00113450503 -0.00295390631 -0.00216142903
      0.00155061332 0.0192596316 0.0151013723 0.00493634678
      -0.00540272333 -0.00590197556 -0.0132118026 -0.00276437402
      -0.00272386824 -0.000883025932 0.0117688002 0.00183811947
      -0.0129443351 -0.0123336492 -0.00998865534 -0.00519944867
      -0.00735018542 -0.00821434055 -0.00704852818 -0.00153773092
      -0.000576248567 -0.014602025 -0.010766089 -0.00933511648
      -0.0121658528 -0.007977359 -0.00928181503 -0.0133176399
      -0.00208866573 0.0131480088 0.00555785885 -0.00451446278
      -0.00564730261 -0.00351598766 -0.0021128864 0.000585456786
      0.00200869446 0.0101748407 0.00743505498 0.00502830604
      -0.000683617895 -0.00662833126 0.00251900335 -0.00053088268
      0.00211368315 0.00305948104 0.0061306213 -7.85020748e-05
      -0.00902628247 -0.010060125 -0.0102558462 -0.0114835752
      -0.0103841797 -0.00866291579 -0.00947013032 -0.00216770708
      0.0041118199 -0.0120542096 -0.0121462476 -0.0113321459
      -0.00351603585 -0.00559144979 -0.0108026667 -0.00574224023
      0.00482765771 -0.000452014239 0.00208846433 -0.000214609303
      -0.00373697164 0.0060437955 0.00322711561 -2.68292297e-05
      0.000488187245 -0.00137213978 -0.00949743111 0.00272049871
      -0.00275487127 -0.000951939495 0.00682199886 0.00542090088
      -0.00492103538 -0.00253289612 -0.00771065988 0.00438172976
      -0.0107337236 -0.0102703953 -0.0091214506 -0.000317506347
      -0.00461802492 -0.0103597967 -0.00415103836 0.00602040067
      0.00497857155 -0.00986577291 -0.00886508543 -0.00703973044
      0.0005873224 -0.00265023415 -0.00845476333 -0.00876754243
      0.00184093416 -0.00805790816 0.000560244021 -0.00149208016
      0.00054607325 0.0109934853 0.00828573015 -0.000609032926
      0.000557650288 -0.00962091051 -0.0133815669 -0.00431738934
      -0.00334850373 0.00142275007 0.0109502692 0.0059315986
      -0.00230766111 -0.0038761443 -0.0136464713 0.00556198787
      -0.0116479574 -0.00639531994 -0.00500446977 0.00621724548
      -0.000147067782 -0.00561035518 -0.007888088 0.00335380039
      0.00407627691 -0.0150073525 -0.00604247907 -0.00465086242
      0.00547305681 -0.000523656025 -0.00838110317 -0.00964214094
      0.00693077594 -0.0146532105 -0.00671806699 -0.00701027131
      0.00262989243 0.0175333414 0.00790496264 -0.00440584961
      -0.0055353283 -0.0143674007 -0.0192048121 -0.00857437029
      -0.00760238757 0.000784647826 0.0165310875 0.00301191164
      -0.00760152144 -0.0100429347 -0.0174168665 0.00861885119
      -0.0112201869 -0.00494329166 -0.00421089446 0.0104165003
      0.00199269783 -0.00616777036 -0.00525535829 0.00975556206
      0.0107037136 -0.0079329107 -0.00601764582 -0.00850280747
      0.00350978272 3.32054515e-05 -0.00669772318 -0.00652489159
      0.0108808195 -0.0146715501 -0.00305328239 -0.00255659479
      0.000451621047 0.013940094 0.00620346656 -0.00187291333
      -0.00407896936 -0.0140692303 -0.0165418405 -0.0090303598
      -0.00999108236 -0.00465794001 0.00695433747 -0.00225860765
      -0.0037440029 -0.00303640938 -0.0182595942 0.0185601953
      -0.00495112687 -0.00421617134 -0.00691133225 0.00127359608
      -0.000179631752 -0.00396052562 -0.0039062663 0.0194949768
      0.0129299127 -0.0118780695 -0.00880233292 -0.0101269092
      -0.00622759108 -0.0111378636 -0.00608840492 -0.0038336697
      0.0135043273 -0.0119292997 -0.00605353573 -0.00812771451
      -0.00342373177 0.0038141422 -0.00407909974 -0.00207628217
      0.000527595344 -0.0125299934 -0.0155611224 -0.00991165638
      -0.013633511 -0.0121273352 -0.00767649477 -0.00671251072
      -0.00268621068 0.00231223996 -0.00871116947 0.0187676065
      -0.00797905773 -0.00818265975 -0.00806963351 -0.00636669714
      -0.00979102682 -0.00427499833 -0.000572879973 0.0192170199
      0.0190293249 -0.00951894 -0.0125607355 -0.0143572027 -0.0138096344
      -0.00858542323 -0.00278492528 0.00230958546 0.022572834
      -0.0147988452 -0.00945665222 -0.0122890742 -0.0115289548
      -0.00608008588 -0.00639221165 -0.00325448345 5.46484553e-05
      -0.0109928334 -0.015412637 -0.0122447852 -0.010119278
      -0.00646672444 0.00493049202 -0.00050409988 -0.00724256365
      -0.000404241087 -0.0106727006 0.0155885117 -0.00572621031
      -0.00972600654 -0.012959389 -0.0124027245 -0.00942723174
      -0.00411721971 -8.24100498e-05 0.0191190317 0.0154847754
      -0.00176264218 -0.00596129755 -0.0052121114 0.00237551495
      -0.00365052 -0.00356064131 0.000116608448 0.0177126136
      -0.0167562123 -0.0109487623 -0.00966856908 -0.0066040908
      0.00151562144 -0.00177578581 -0.0083752051 -0.00668478617
      -0.0155534418 -0.0148768267 -0.0104343472 -0.00193025358
      -0.00529677328 0.00928640366 0.00107467233 -0.00468873326
      -0.00796157867 -0.0147188772 0.013896279 -0.00455363514
      -0.0117620584 -0.00320180785 0.00449874438 -0.0048571066
      -0.0074227252 -0.00863883831 0.00616940437 0.00859301165
      -0.0110503417 -0.013286436 0.00128801656 0.0117395464
      0.00438116863 -0.00829690509 -0.0117000611 0.00437738141
      -0.0128275938 -0.00944544468 -0.00593761262 -0.0107546356
      0.00195096096 -0.00333335483 -0.0109060062 -0.00922834966
      -0.0125213591 -0.00399553822 -0.00201345561 0.000686726358
      0.00227070553 0.0204620119 0.00835142285 -0.00722474512
      -0.00351377972 -0.00543819368 -0.00255912379 -0.0184912067
      -0.0162620842 -0.00880157948 0.00475669838 0.00242619449
      -0.0132649578 -0.0107614547 -0.00184700545 -0.000861674314
      -0.00924486574 -0.0062454734 -0.000469792692 0.0230135173
      0.0109197637 -0.00848289579 -0.00378771918 0.0015102264
      -0.0060025244 -0.00442042295 -0.00117359147 0.00706598256
      0.0167481322 0.0154235447 -0.00272127008 -0.00176134286
      -0.00668282015 -0.0078430865 -0.00147329608 -0.00423172629
      -0.00107311353 0.0116071831 0.0149643412 0.000621943327
      0.00054430234 0.000245386036 -0.0111248679 -0.00743152387
      -0.00399282994 0.00400723517 0.0227829181 0.0150433816
      -0.00111728325 -0.0030175189 -0.00966758095 -0.00892635342
      -0.00595202344 -0.00427290052 -0.00195863703 0.014514111
      0.0103399903 -0.00272359676 -0.00653894152 -0.00988523755
      -0.00375668285 0.0018428677 -0.000497462519 -0.00248928322
      0.00431940751 0.0125328833 0.00828663073 0.00971818529
      0.00869568065 -0.00668547582 -0.00246926304 -0.00113911042
      0.000761856674 0.00396589702 0.0122591686 0.0094814701
      0.00799636729 0.00343223359 -0.00245634886 0.000265961367
      -0.00282540102 -0.00452803681 0.00430739345 0.0115411496
      0.0039969692 -0.000758990238 -0.00079757662 -0.00433918554
      -0.00527343014 -0.00669792714 -0.00572606083 0.00214915257
      0.0147664407 0.0076932353 0.00237710238 0.00128778152
      -0.00664922595 -0.00525859138 -0.00608638162 -0.00499168644
      0.00449196296 0.00878831837 0.000231486658 0.00058002345
      0.00457619969 0.000204658369 -0.00420108298 -0.00352344918
      -0.00375903281 0.00958396494 0.0161927845 0.000758162467
      0.00298619037 0.0053242729 -0.00745084416 -0.00784626696
      -0.00632563746 -0.00748615945 0.00361335836 0.0097192442
      0.000702509133 0.000226709933 -0.00244092033 -0.00616892148
      -0.0063321176 -0.0032902176 -0.00470743887 0.00586795807
      0.0133951511 0.000867364986 -0.000553048681 -0.000989576452
      0.0216988232 -0.000785220473 -0.00173232006 -0.00506410841
      -0.0048216572 -1.67571707e-05 0.00257812464 0.000731390726
      0.0221280158 0.0125787649 -0.00310143037 -0.00132590719
      -0.00360762351 -0.00705285929 -0.00494659273 -0.00240124017
      -0.00326995249 0.00972267892 -0.00922594406 -0.0074492516
      -0.0063894256 -0.00379511458 -0.00168955524 0.01099212
      0.00713976193 0.00770030869 -0.00699757179 -0.0150844427
      -0.00963370502 -0.00521711772 -0.00210401439 -9.59000972e-05
      0.00312563707 0.0027104232 -0.00163081498 -0.0132892402 0.01356785
      -0.000444880337 0.00291335559 -0.00123270578 0.000671578397
      -0.00191731181 -0.000948211062 -0.00110686885 0.0101538524
      0.0122300135 -0.00560813118 -0.00355638377 -0.00646370975
      0.00606876006 0.00125158438 0.000672819908 0.0018950121
      0.0114609273 -0.00945981592 -0.00644840673 -0.000746020698
      -0.00113859319 0.00243555871 -0.00173583569 0.00263550761
      -0.000402514997 -0.00708213449 -0.00851913821 -0.0100451447
      -0.00246224529 -0.00634113094 0.00174582808 -0.00300068199
      0.000925845234 -0.00122979551 -0.00591538521 0.00534025021
      -0.00502934167 -0.00452812016 -0.00558968401 0.00379591947
      0.000152162422 0.00262472755 0.00353132584 0.00648731552
      0.0078579206 -0.00582403131 -0.000413913891 -0.00537244417
      -0.00511425501 0.00220586453 0.00398796704 4.12239096e-05
      0.00968105067 -0.00485376315 -0.00809147116 -0.000623438333
      -0.00497686537 -0.000698188727 -0.00376835791 0.000900391897
      -0.00033410074 -0.00481839292 0.00571569707 -0.0053706523
      0.00104522542 -0.00782311149 0.00396375917 -0.000823519484
      0.00443371618 0.000631900621 0.0039638062 -0.00452937419
      -0.00946927909 -0.00664550392 -0.00811399613 -0.00548109552
      -0.00723317033 -0.00155134522 -0.00471021561 0.000217464869
      0.00397118041 -0.0115442583 -0.012569055 -0.00968682021
      0.00505266571 0.00262935786 0.00226595998 0.00338334404
      0.00880685821 -0.000411760266 -0.00909821037 -0.00511922361
      -0.00816408265 -0.00669771386 -0.00559683796 -2.91583001e-05
      -0.003340689 -0.000818341796 0.00317713316 -0.0116719473
      -0.0097725559 -0.00717888353 0.00166440802 0.000579531421
      0.00397148356 0.00161873235 0.00699157361 0.00655669859
      -0.0129051814 -0.0116457343 -0.00779364584 7.66796074e-05
      -0.00288371183 -0.00451398548 -0.00204457948 0.00888861902
      0.0129381167 -0.0123253549 -0.00915594399 -0.00699056359
      -0.00206215447 -0.00402454566 -0.00505873607 -0.0077943299
      0.0130584529 0.00531922607 -0.012322356 -0.0103101358
      -0.00602613064 -0.00346300215 -0.00367486384 -0.00168340933
      -0.00454727234 0.00463139266 0.0031206524 -0.011717313
      -0.00754330121 -0.00664852746 -0.00901278015 -0.00586605724
      -0.00329483766 -0.00913532171 0.00441617658 0.0094356304
      -0.0153946709 -0.00783109758 -0.00642736023 -0.00401599379
      -0.00523329945 -0.00548319472 -0.00930898637 0.010550336
      0.0129089002 -0.0161594413 -0.00823468808 -0.00793357287
      0.00322916498 -0.00445534801 -0.00758676836 -0.00915046316
      0.0121319341 0.000750337902 -0.0128861899 -0.00724491756
      -0.00783963967 -0.00977443065 -0.00665810751 -0.00611182628
      -0.0106735649 0.000987816602 0.00503863348 -0.0126089891
      -0.00897626858 -0.0104514454 -0.0114407968 -0.0105613992
      -0.011562855 -0.0130974371 0.00417134212 0.012129196 -0.015199204
      -0.00874124374 -0.00834292639 -0.00164034008 -0.00614049844
      -0.00927831884 -0.0108532626 0.0145807257 0.018771572
      -0.0141297001 -0.00963395648 -0.0112091433 -0.00733468216
      -0.00751490658 -0.00989583693 -0.0116556166 0.0174817182
      0.00422320282 -0.0129815741 -0.00979094952 -0.0098020779
      -0.0124722179 -0.0110950684 -0.0124648865 -0.0141695235
      0.00268824236 0.0044237189 -0.0175256841 -0.0127886487
      -0.0132443113 -0.0163618084 -0.0137442956 -0.0138437711
      -0.0164216291 0.00426683621 0.0231345296 -0.0128181288
      -0.00816318579 -0.0100245951 -0.0136664668 -0.0100971553
      -0.00964914728 -0.0140842348 0.0215098988 0.0213482492
      -0.0161184985 -0.00994915608 -0.0112789478 -0.0169144478
      -0.0137213003 -0.0102803102 -0.0147327408 0.0204271562
      0.00856838282 -0.0153691303 -0.00982218515 -0.0111237196
      -0.0170177054 -0.0116713168 -0.0117455833 -0.0164963193
      0.00378775783 0.00675525935 -0.016108999 -0.0113903247
      -0.0130665312 -0.0188578106 -0.0138245253 -0.0140833342
      -0.0213042367 0.00283695059 0.0210074764 -0.0135786291
      -0.00886201765 -0.0106850136 -0.0146554178 -0.0118048145
      -0.00946739502 -0.0135333696 0.0192303304 0.0225467812
      -0.0142623885 -0.0110033862 -0.0129582845 -0.0163416639
      -0.0122065349 -0.0110257631 -0.0145622427 0.0207027961
      0.00643152092 -0.014865783 -0.0119941738 -0.0126354443
      -0.0150854513 -0.0121382372 -0.0120783262 -0.0167553704
      0.00374562619 0.00877014454 -0.0170415491 -0.0148032513
      -0.0147241531 -0.0173274148 -0.0140613718 -0.0122656012
      -0.0182868987 0.00512798643 0.020075094 -0.0066297669
      -0.00805948488 -0.00990959723 -0.0139638307 -0.0120051755
      -0.00986610912 -0.0136104682 0.0178200565 0.0205203295
      0.00143620744 -0.00501405913 -0.00871087331 -0.0108699808
      -0.0129628349 -0.0110201268 -0.0146854594 0.0162397195
      0.00768539868 -0.01068254 -0.0104471482 -0.0112778554 -0.014997283
      -0.011220132 -0.0106235659 -0.0172242988 0.00302926381
      0.00733263325 -0.00572696095 -0.00947727263 -0.0130257923
      -0.0148793506 -0.0131504331 -0.0130898338 -0.0176256616
      -0.000254548126 0.0186393633 9.38175508e-05 -0.00262053427
      -0.000915672397 0.00414730422 -0.00898384582 -0.00884949602
      -0.0129231894 0.0126354173 0.014210741 -0.00708249863
      -0.0106013762 -0.00281919725 0.00787114166 -0.00542997243
      -0.0112614101 -0.0117890723 0.00705790753 0.00469343783
      -0.00347169628 -0.00730962958 -0.0109552853 -0.0111395419
      -0.0114818057 -0.0106511582 -0.013687063 -0.00404711952
      -0.000122244513 -0.0118078422 -0.0127991736 -0.0132098338
      -0.00154821191 -0.00988938008 -0.00864107255 -0.0085250875
      -0.00271708635 -0.00177949946 -0.0121152606 -0.0139089813
      -0.00858993083 0.0147144012 0.00180460711 -0.0114013236
      -0.00817468949 -0.000674509618 0.000835222192 -0.00572928879
      -0.00797992107 -0.00165491237 0.0253533944 0.00785067305
      -0.00672581699 -0.00217883172 0.00292906654 -0.004182545
      -0.00974673033 -0.013316893 -0.0102968663 0.0180166531
      -0.00346989604 -0.00796511769 -0.00577910338 -0.00334210671
      -0.00117625145 -0.0051764301 -0.00854344852 -0.00320229586
      0.0271196812 0.000321851374 -0.00640314957 -0.00367680984
      0.00344037591 -0.00408042734 -0.00257756351 -0.00303673232
      0.00440560887 0.012170596 0.0161213074 0.00596306426 0.00435993262
      0.00368600292 -0.00709580118 -0.00221025525 -0.000166122903
      0.00153894222 0.0147477556 0.0150942337 0.00539992331
      0.00298968935 -0.00350603159 -0.0011276087 -0.00319809862
      -0.00479545631 0.000222974792 0.0167434514 0.00551115116
      -0.00269308337 -0.00513979373 0.00450602453 -0.0168041922
      -0.00849356782 -0.00194663077 -0.00371900713 0.00581461936
      0.00940470863 0.00530280964 -0.0021014486 -0.00552563975
      -3.87277032e-05 0.00107978366 -0.00178099726 -0.00107151002
      0.0038301493 0.0138702625 0.0053501213 0.00932702608 0.00505417725
      0.00187415117 -0.00105364877 -0.00511919102 -0.00490508229
      -0.00176355126 0.0147590963 0.00992837548 0.0156636834
      0.0157809891 -0.0114761218 -0.00343749509 -0.00209012418
      -0.00262292102 0.00151124026 0.00741946325 0.00504655112
      0.00588830886 0.00341613544 -0.00743923057 -0.00243508304
      -0.0053767669 -0.00297957519 -0.00397905847 0.00127449527
      0.000984217855 0.00893093273 0.00569359493 0.000627914502
      -0.00199753093 -0.00350687071 -0.00418788707 0.00426938152
      0.0111091603 0.00799362455 0.00973360799 0.0115158791
      0.00128411001 -0.00373730063 -0.00278705289 -0.00315891393
      0.00723022828 0.0157392304 0.00592538854 0.00769352494
      0.00628978899 -0.00584173715 -0.00266676839 -0.00759287365
      -0.00690698065 -0.00166553492 3.00912307e-05 0.000615748519
      -0.000186397781 0.000781925395 -0.0106157623 -0.00778905954
      -0.00662973244 -0.00694076484 0.00830058474 0.0119490325
      -0.00182526617 -0.00181491103 -0.00390982442 -0.00313719478
      -0.0020936979 0.000995477079 -0.000427825144 0.00881913956
      0.0110825663 0.0173767209 0.0141880866 0.00133104704
      -0.00384490821 -0.00119531946 0.00387270027 0.00124693429
      0.0140236942 0.00922130235 0.0138841681 0.00861592125
      0.000673131144 -0.00501422677 0.00441986183 0.00527755497
      -8.92706885e-05 0.0108692637 0.000540247594 0.00938917138
      0.0117253093 0.000242107679 -0.00330218277 0.00389665575
      0.00901137292 -0.00124253088 0.015723886 -0.00200720411
      0.0136037869 0.0107824421 -0.00381290307 -0.00367649761
      -0.00338147045 0.00431537721 -0.000219683439 0.0140426932
      -2.46702111e-05 0.00959360786 0.0041792877 -0.00238963077
      0.000824658375 -0.00489650806 0.00448155915 -0.00661224127
      0.00967027899 -0.00636902126 0.00631058356 0.00174633402
      0.000269149779 -0.000654873671 0.00386304548 0.0120283915
      -0.000878485676 0.0163019039 -0.00382821658 0.0093664974
      0.00711147487 -0.0032147537 0.00356491655 0.00527142268
      0.0120602027 -0.00536683388 0.0175726581 -0.00863582268
      0.00578616001 0.00421588635 -0.00120972877 0.0020433506
      -0.00207268889 0.00306970673 -0.00618344126 0.00597492652
      -0.00565878209 0.00495306449 0.000332239841 0.00279799174
      0.0167768467 -0.0014798796 0.00302941352 -0.00932175852
      0.00693412311 -0.00173429295 0.00808404665 0.00420965534
      0.0142378053 0.00155561266 0.00414748769 0.0042777895
      -0.00930419005 0.00827401038 -0.00934211072 -0.000451200438
      -0.00195171603 -0.00168216648 0.00375886541 0.00179686968
      0.00427645259 -0.0114823971 0.00738208788 -0.00515409373
      0.000409793545 0.000444077828 0.00260591693 0.00825484935
      -0.00650476385 -0.00227273628 -0.0088306414 0.00463613309
      -0.00169345015 0.00431680586 0.00188763603 0.0102310535
      0.0183001403 -0.00584417628 -0.0013545613 -0.00474401517
      0.0105725601 -0.000964396575 0.00562917627 0.00327583309
      0.017384652 -0.0116578396 -0.00210333429 0.0021321103
      -0.00852031726 0.00642655464 -0.00342988619 0.000732181768
      -0.000985867344 -0.00975311734 -0.00920908991 0.0012596763
      0.0071738828 -0.00147134275 0.0159606952 -0.00179338502
      0.00517447665 -0.00294001168 -0.015406549 0.0119462227
      -0.00556262117 -0.000176351241 -0.0045688618 0.00512495171
      -0.00608334597 0.00124693115 -0.00320509262 0.00945183355
      0.00141749543 -0.00764843542 0.000413781294 -0.00719777727
      0.0042916541 -0.00638375897 0.00384856691 -0.00310480176
      0.00117651827 -0.0110394293 0.000142211386 0.00390757294
      -0.00324235088 0.0115017826 -0.00631537708 0.00326883537
      -0.00407654187 -0.0176178534 -0.00618932862 0.000442800025
      0.00401647203 -0.00779300742 0.0103221154 -0.00742689241
      0.00317325187 -0.00218312349 -0.00979998242 -0.00268945657
      -0.00803182647 -0.000595713675 -0.00532378443 0.00637673773
      -0.00195190392 0.00530487951 -0.00297060399 -0.00209340523
      0.00973693468 -0.00451682648 0.000932917115 -0.00782064907
      0.00302306516 -0.00834424142 0.00196537259 -0.00637149205
      0.00850089826 -0.00791343581 -0.000611376308 0.00290988502
      -0.00761347823 0.00982560404 -0.00315852789 0.00249291584
      -0.0047756373 -0.00983844325 -0.00771292578 0.00250132428
      0.00508453464 -0.00830664299 0.00787649769 -0.00663445191
      0.00398461474 -0.00607872289 -0.011552359 0.0144556202
      -0.00363242975 6.36906771e-05 -0.00619263574 0.000501462549
      -0.0090642618 0.000505889475 -0.00398439774 0.0150687564
      0.00278389198 -0.00826462451 -0.00196873187 -0.00958419871
      0.000699920522 -0.0124507304 -0.00237832125 -0.00710062869
      0.00309056416 -0.00749511784 0.000779724971 0.00465544686
      -0.0046721329 0.00675971014 -0.00642571598 0.00671769772
      -0.000621588202 -0.00735918619 -0.012114143 -0.0052215578
      0.00213387865 -0.00640210416 0.00826705527 -0.00895769428
      0.00251610111 -0.00405764254 -0.0112594422 0.00568618486
      -0.00516321324 0.000298666419 -0.00598580157 0.0013611177
      -0.00808926579 4.03363265e-05 -0.00467427168 0.00291167037
      0.00975207239 -0.00431094645 0.00133231096 -0.00652753236
      0.00102217728 -0.0096638659 -0.0023638967 -0.00504989317
      0.00892949477 -0.0136349481 -0.00388161698 0.00148274971
      -0.00388192688 0.00911596511 -0.00555015774 0.00114194979
      -0.00279671443 -0.0108548589 -0.0109463613 -0.00529150059
      0.00314823166 -0.00430288725 0.00995444506 -0.00683218939
      0.00252940273 -0.00597790489 -0.0118400743 0.0116867535
      -0.00607657526 -0.00264918222 -0.00979289692 0.000884081877
      -0.00888877269 -0.00104585278 -0.00615017582 0.0130906384
      0.013704651 -0.00843606889 -0.00529204868 -0.0104972078
      0.00470757345 -0.00731089944 0.00225871243 -0.00850631483
      0.0130296554 -0.0114197815 -0.00645131106 0.00298160175
      -0.00641288655 0.00569272693 -0.00747498125 0.00177218544
      -0.00572700426 -0.0114245191 -0.0063682585 -0.000385350082
      0.00552815059 -0.00473327795 0.00891146436 -0.0044547515
      0.00484583853 -0.00362492749 -0.0103910109 0.0106703322
      -0.00571394898 -0.00372946379 -0.00950074475 0.000188990845
      -0.00578110293 0.00130891509 -0.00582970819 0.00851416588
      0.00865229033 0.00210868032 -0.00212507253 -0.0105583454
      -0.000308931922 -0.0105065685 -0.00475717802 -0.0104920641
      0.00488886517 -0.00613348745 -0.00176724361 0.00198382116
      -0.00526880054 0.00695959106 -0.00264835195 0.00538312597
      0.000338158658 -0.0104174484 -0.00751351332 0.000952141942
      0.00128039811 -0.00580512406 0.00560454652 -0.00407146849
      0.00157157273 0.000729192398 -0.00833273213 0.00647359388
      0.00259794598 0.0009569627 -0.00607101247 0.00477698119
      -0.00674238475 -0.00692694634 -0.00806945097 0.00331012695
      0.00432018843 -0.00179439771 -0.00470069749 -0.00487262011
      0.0149933435 0.00644003972 0.00321821962 0.00340039865
      0.00192163954 -0.00981945638 0.000225190757 0.000216009197
      -0.00555992918 0.00556916045 -0.00533337519 -0.00581347896
      -0.00346118514 -0.00929112826 -0.0122274403 -0.00713650649
      -0.00482949242 -0.00226738537 0.02943567 0.00360584422
      -0.00345345307 -0.00480671553 -0.0137944613 -0.011770702
      -0.0124576008 -0.0126182092 -0.00698262546 0.022004284
      0.00827746559 -0.000975465577 -0.00274158269 -0.0108004026
      -7.80146456e-06 -0.0076331608 -0.00592071423 0.00306009315
      0.0297472402 0.0197293032 0.00234774011 0.00353401573
      0.00175773597 -0.02388837 -0.0150761297 -0.0148224002
      -0.00366340508 0.0296387002 0.00382368034 -0.00715538627
      -0.0120006688 -0.0232006796 -0.0224002451 -0.0131324986
      -0.0119242147 0.00419125054 0.024483636 0.0103744278
      8.80768639e-05 -0.00734503847 -0.018315915 -0.00764862634
      -0.00890542846 -0.0035702379 -0.000268302887 0.0160917658
      0.00895967614 0.00106459029 -0.00471803313 -0.00264392165
      -0.0145154847 -0.00803125836 0.000986715546 0.00142583239
      0.0150765823 0.0185134839 0.00866352487 -0.00152368844
      -0.00353623321 -0.0141419852 -0.0118314121 -0.00574734015
      0.00228328374 0.0155782579 0.00549782766 0.00573782902
      -0.000857582898 -0.0049074241 -0.0106342323 -0.00925654639
      0.00351189636 0.00748146977 0.0172811281 0.0205544177 0.0166120268
      0.000871324155 -0.00307338196 -0.0102565642 -0.00499072019
      0.000413637899 1.21912062e-05 0.00978874974 0.0220524073
      0.0159969777 0.00424213009 -0.00288451067 -0.00817054976
      -0.00312166195 -0.00474936096 -0.0049274331 0.00446483167
      0.00528136501 0.00500487303 0.00179754326 -0.0041026175
      -0.00949959736 -0.00569913723 0.00094412762 0.00319747231
      0.0167471152 0.0252027977 0.0181785598 0.00162552297
      -0.00379411131 -0.0112363584 -0.00286225323 -0.00662979996
      -0.00352264382 0.0108763054 0.016072996 0.0130881285
      -0.00297191157 -0.011123131 -0.0105890213 -0.00364824082
      -0.00631124061 -0.000174755609 0.0134204105 0.00703187007
      0.00275876536 0.000200724069 -0.0103522725 -0.0119125377
      -0.00692931097 -0.00314313988 -0.000465442397 0.0236210953
      0.0204398278 -0.0024137774 -0.0042119585 -0.0121158166
      -0.0140444459 -0.00212846696 -0.00728987763 0.00121898635
      0.0209439471 0.0122883059 0.00372976321 -0.0041680634 -0.014318469
      -0.0154792741 -0.00828294922 -0.0041705817 0.00164696411
      0.0288500544 0.0185435656 -0.00462602032 -0.00886610616
      -0.0146207018 -0.0193194374 -0.00746514089 -0.00590069499
      -0.00706920866 -0.0147505617 -0.0106153954 -0.0105036646
      -0.00724210776 -0.0203849226 -0.0235298462 -0.010426417
      -0.00797056407 -0.00957419537 -0.0166269355 -0.016633166
      -0.0135851195 -0.00898136478 -0.0251100957 0.0354934074
      -0.00759965507 -0.00452429103 -0.00642774813 0.000948794011
      -0.00530379405 -0.00680497847 -0.00195064594 0.0345006995
      0.0287222769 -0.0111306133 -0.00693558203 -0.0069338074
      -0.000607527327 -0.00400551548 -0.00643113721 0.0229525045
      0.0291801859 -0.0195079912 -0.00909040309 -0.00396132143
      -0.00661929278 -0.0125430552 -0.0112189371 -0.00943000242
      -0.00693626236 -0.0188364759 -0.0228405315 -0.00958173629
      -0.00494639948 -0.00785154197 -0.00936082192 -0.0110337641
      -0.0103019364 -0.00972770527 -0.0234443992 0.0226965602
      -0.0102768317 -0.00347736944 -0.00377160427 0.00580416527
      0.00304482668 0.0040017399 0.0363298096 0.0234341286 0.0211092606
      -0.00677935733 -0.0041685435 -0.00381856738 0.00251937867
      -0.00407531112 -0.00353160175 -0.0014719523 0.0224588439
      -0.0204650704 -0.00713801151 -0.00670616422 -0.00760225253
      -0.00718639744 -0.00764662074 -0.0081721684 -0.00968431029
      -0.0210646205 -0.0205943044 -0.00771806715 -0.00732088834
      -0.00837144721 -0.00652177725 -0.0057132761 -0.00782060809
      -0.00885709096 -0.0189675801 0.0297141783 0.00207345327
      -0.00590662472 -0.00582631025 -0.00169807673 -0.00591531349
      -0.00722324848 -0.0100483857 0.0249345824 0.0291704182
      -0.00123826764 -0.00342811365 -0.00693491148 -0.00614942284
      -0.00779868988 -0.00984085444 -0.00975390989 0.0247466918
      -0.0233527012 -0.00582983298 -0.00236609299 -0.00575443124
      -0.0046233153 -0.00367258582 -0.00284861913 -0.0047209058
      -0.0222321041 -0.0233398117 -0.00654351199 -0.0019829087
      -0.0038860878 0.00210593664 -0.00274176802 0.000478244852
      -0.00632440113 -0.0237493254 0.0236532185 -0.0032487961
      -0.00321644545 -0.00576107902 -0.00414692285 -0.00587404985
      -0.00602186192 -0.00678884191 0.0233263057 0.0233263392
      -0.00473956717 -0.00177693833 0.00489601446 -0.000170961692
      -0.0065537435 -0.00290283794 -0.00839901529 0.0248444974
      -0.0219721254 -0.00473792385 -0.00200900482 -0.00407347549
      -0.000853084144 -0.00411297381 -0.00111006701 -0.00643548276
      -0.0225650873 -0.020327501 -0.00395142753 -0.000799781294
      -0.00633722683 -0.00333511899 -0.00598161854 -0.00391317718
      -0.00682831788 -0.0188521035 0.021600198 -0.00773462094
      0.000396025163 0.0116794314 -0.00111446227 -0.00347450865
      -0.00239039515 -0.00932790618 0.0218920391 0.0238266625
      -0.00880041253 -0.000778731308 0.0042732032 -0.00175053347
      -0.00381317222 -0.00485838484 -0.0108371433 0.0223150812
      -0.0187224131 -0.0034864035 -0.00202232902 -0.00558636431
      -0.00433581183 -0.00424458645 -0.00489291735 -0.00576028461
      -0.0164370798 -0.0185713172 -0.00394242909 -0.00216457178
      -0.00689815218 -0.00724611478 -0.00697855605 -0.00490600104
      -0.00625378406 -0.0174455196 0.0227712896 -0.00651404774
      -0.00297108851 -0.00323345955 -0.0033440399 -0.00516130403
      -0.00870301016 -0.00925369281 0.0224341676 0.0236753076
      -0.00758268451 -0.00035030031 -0.00316984951 -0.00525797438
      -0.00688085612 -0.00704125082 -0.00467025628 0.0279673841
      -0.0200498104 -0.00544437859 -0.00140975532 -0.00584004074
      -0.00526323449 -0.00687217619 -0.00222614105 -0.00462900847
      -0.0176693685 -0.0233694296 -0.00844106544 -0.00566064101
      -0.00858738832 -0.00695202639 -0.00671221223 -0.00388855278
      -0.00509572169 -0.0196805466 0.0219454765 -0.00631622178
      0.000189366037 -0.00319142849 -0.00453215232 -0.00592756551
      -0.00320740836 -0.00355544733 0.0262914281 0.0248829983
      -0.0110960882 -0.00550423702 -0.00647097966 -0.00404329225
      -0.00676928367 -0.00544781657 -0.00556975044 0.0266617201
      -0.0218303744 -0.00604409957 -0.00431498885 -0.00702406513
      -0.00519797485 -0.00491999928 -0.00460128533 -0.0054059606
      -0.0190824829 -0.0213839859 -0.00908806641 -0.00431180326
      -0.00687413802 -0.00717743766 -0.0083335517 -0.00726542622
      -0.0108435974 -0.0239872988 0.0266615562 -0.00686448393
      -0.00540220411 -0.00693698041 -0.00486914301 -0.00665177777
      -0.00365164946 -0.004280678 0.0284105781 0.0312396344
      -0.00808446947 -0.00606105011 -0.00903644972 -0.00791259948
      -0.0109804813 -0.00572765525 -0.00755961193 0.0275936946
      -0.0194008425 -0.00912627485 -0.00496407971 -0.00590919191
      -0.00727794087 -0.00775484834 -0.0065661259 -0.00993043464
      -0.0218475722 -0.0180267002 -0.00781177962 -0.00532580633
      -0.00764705194 -0.00719777122 -0.00865669921 -0.00413321098
      -0.00863617379 -0.022400666 0.030238824 -0.0069376491
      -0.00597126316 -0.00665096613 -0.0072756093 -0.00841225777
      -0.0063972217 -0.00783961546 0.0275636353 0.0286785122
      -0.0101439394 -0.00920989364 -0.00952976663 -0.00599311013
      -0.00656081829 -0.00231525186 -0.00517149828 0.0283775292
      -0.014999317 -0.00807629991 -0.00434779236 -0.00608790247
      -0.0071964669 -0.00788808614 -0.00217535114 -0.00525790965
      -0.0212488119 -0.0185989402 -0.00866008736 -0.00522081135
      -0.00732219638 -0.00613444159 -0.00879255403 -0.00547368685
      -0.00577594619 -0.0242498983 0.0237950366 -0.00640438544
      -0.0074396166 -0.00863040891 -0.00788811408 -0.00748945447
      -0.000546557072 -0.0024076621 0.0253961887 0.0293084066
      -0.00160608767 -0.0051298812 -0.00726316636 -0.00698528253
      -0.00910452008 -0.00369416294 -0.00301240152 0.027315231
      -0.0200361814 -0.00796388928 -0.00929435808 -0.00805720221
      -0.00473403977 -0.0070988806 -0.00915133208 -0.00881059282
      -0.0242643133 -0.0220098738 -0.00972275902 -0.00940710027
      -0.000915714831 0.00892741978 0.00127891987 -0.00880205911
      -0.00803590659 -0.0249094628 0.0149898371 -0.00393447373
      -0.00719539961 -0.00636192365 -0.00352391414 -0.00746366149
      -0.00842354354 -0.00687339902 0.0144930109 0.0199270267
      -0.00291617471 -0.000273847312 0.00607563695 -0.0050299638
      0.00137081661 -0.00671557849 -0.00456635235 0.0222051796
      -0.0179828648 -0.00830520224 -0.00953062717 -3.87395121e-05
      0.0194947235 0.000254869839 -0.00720989797 -0.00888317823
      -0.0211799312 -0.0139359208 -0.00863302127 -0.0100855343
      0.00209186017 0.0181115754 0.00120084186 -0.00329250935
      -0.00630500494 -0.0188057385 0.00720034027 0.000815477921
      -0.00316518103 0.00682281051 0.00450782152 -0.00264336774
      -0.00837606564 -0.00522429449 0.00854989327 0.00920268148
      0.0077289436 -0.00232946104 0.0101711871 0.0102599179
      -0.00133990927 -0.00272694277 0.000538581226 0.0104922354
      -0.0130397398 -0.0083778128 -0.00744250417 -0.0019783366
      0.00987983774 0.00247642421 0.00435969792 -0.0022884463
      -0.0132239368 -0.0121419095 -0.00660252664 -0.00235826289
      0.000309422961 0.010965568 0.0148585355 0.0128675615 0.00136210921
      -0.0106270863 -0.000237609289 0.0013497445 -0.00335071469
      0.00363875926 0.0140684191 0.00687343162 0.00497030606
      0.00654344866 0.00152127154 -0.00849324279 0.000982880709
      -0.00241453364 0.00420762412 0.0186293405 0.0189254135
      0.0139967659 0.00978734531 -0.00423976872 -0.00994783081
      -0.00445781741 -0.00305175269 -0.00189096516 0.00775387837
      0.018884996 0.0163504109 0.00550871855 -0.00916413777
      -0.0117445122 -0.00478944508 -0.00387804769 -0.00258056354
      0.00682260748 0.00949509069 0.00569488015 -0.00196262612
      -0.0122900475 -0.00739114685 0.00131982472 -0.00324056461
      0.00367307267 0.0151664093 0.023284696 0.0204801448 0.0131467367
      -0.00214377348 -0.00757737923 0.000666582375 -0.00112808461
      0.00231564348 0.00827145763 0.0126107931 0.00674167508
      0.00390847353 -0.0093838973 -0.0141222775 -0.00542137539
      -0.00428998517 -0.00118272274 0.0169536732 0.00649387203
      -0.000162607175 -0.00599181047 -0.0142073249 -0.0150947366
      -0.00666526519 -0.00399419339 -0.000431694585 0.0211814698
      0.0131413685 -0.00667168014 -0.00926545821 -0.0182632431
      0.00222736853 0.00271318643 0.000902430911 0.00171806 0.0124947894
      0.0124076717 0.000397835509 -0.00226324447 -0.00307110301
      0.00517228385 0.00389335933 -0.00119435054 0.00195652503
      0.00982558355 0.00737861963 -0.0094857784 -0.00766372168
      -0.00575327734</_></support_vectors>
  <uncompressed_sv_total>63</uncompressed_sv_total>
  <uncompressed_support_vectors>
    <_>
      0.298083514 0.298083514 0.0795379356 0.00110455451 0.00150823616
      6.58282588e-05 7.51806001e-05 0.000201243718 0.179300189
      0.298083514 0.298083514 0.134850293 0.000597679464 0.0155097013
      0.000144822159 0.00126431242 0.00149765122 0.224164978 0.298083514
      0.298083514 0.144446582 0.00543228304 0.0042398558 0.000512280909
      0.000689371547 0.00205164566 0.272621393 0.298083514 0.298083514
      0.15355742 0.00740024447 0.00603677519 0.00172884669 0.00204946543
      0.00307045481 0.245165497 0.315946043 0.315946043 0.159430563
      0.00104105298 0.0241058841 0.000283941452 0.00221823785
      0.00201208959 0.271782249 0.315946043 0.315946043 0.202573404
      0.00248692767 0.00993446819 0.00199998193 0.00121417979
      0.00116449839 0.315946043 0.315946043 0.270441949 0.122421488
      0.00741040753 0.0102868732 0.00217030616 0.00276142475
      0.00379612157 0.206534252 0.260352045 0.170847356 0.083416082
      0.005172431 0.0116535751 0.00393536221 0.00280537154 0.0025027988
      0.147637993 0.363394201 0.363394201 0.22606805 0.00425830437
      0.0088054426 0.00284500234 0.00221273396 0.00127936248 0.36089167
      0.363394201 0.363394201 0.153781086 0.00588528533 0.00849274918
      0.00139538292 0.0059898016 0.0126802204 0.363394201 0.174840599
      0.1095706 0.0571461804 0.00562102161 0.0118949236 0.00381058222
      0.00302080181 0.00183490652 0.109242648 0.179140732 0.072934404
      0.110996678 0.00455268519 0.0126888398 0.000561348512
      0.00344214472 0.00407402124 0.150872618 0.304583579 0.234269574
      0.103008553 0.00293878536 0.00554360263 0.000882371853
      0.00876487326 0.052604463 0.266252041 0.304583579 0.131532267
      0.0753778666 0.000708944805 0.0196627229 0.00918232743
      0.0183792468 0.0743851513 0.30117178 0.270276815 0.112663269
      0.204987988 0.0028136638 0.0106110517 0.000248791126 0.00278926641
      0.0071034627 0.230148122 0.304583579 0.304583579 0.304583579
      0.00103829347 0.00582057284 0.00279650162 0.00264925021
      0.00856838096 0.304583579 0.183790535 0.0477627106 0.0235821996
      0.00299843401 0.0190367717 0.0034473869 0.00493790768 0.014054561
      0.182207718 0.221523553 0.0831016004 0.092025362 0.0130981915
      0.00801257137 0.00162977458 0.000927839486 0.00578599237
      0.189665809 0.326116532 0.326116532 0.284263909 0.000760792114
      0.000934459269 0.0010618089 0.000496496214 0.00638769474
      0.326116532 0.326116532 0.326116532 0.326116532 0.00212597917
      0.00122695079 0.0012161301 0.00030660932 0.0174933244 0.326116532
      0.178557396 0.0816714987 0.132461682 0.00598995993 0.00110467838
      0.000935254153 0.00202161516 0.00841123238 0.150023818 0.286729306
      0.171898559 0.276500136 0.00237706746 0.0048568882 0.00345168868
      0.0048767291 0.014412554 0.267041743 0.286729306 0.286729306
      0.286729306 0.00167107838 0.0008958244 0.000942585873
      0.000686910178 0.0168252308 0.286729306 0.286729306 0.286729306
      0.286729306 0.00867375918 0.011990088 0.00278029125 0.00225461833
      0.0196759477 0.286729306 0.242895752 0.208795756 0.242895752
      0.00628191326 0.0167272631 0.00697980635 0.00237209117 0.011339521
      0.242895752 0.242895752 0.241703063 0.242895752 0.0767926425
      0.136187315 0.0764196068 0.0432586074 0.0670470148 0.229680926
      0.242895752 0.242895752 0.242895752 0.0253640618 0.0326129869
      0.0068672765 0.00313796708 0.0106728347 0.242895752 0.242895752
      0.22823678 0.240641937 0.111581698 0.188864037 0.0644914433
      0.0649429634 0.0269112121 0.215794891 0.115309104 0.168000311
      0.229949266 0.140001461 0.148086116 0.12662077 0.126914769
      0.141410992 0.16988343 0.224666521 0.147885367 0.229949266
      0.222141489 0.229949266 0.0832621753 0.14429386 0.228739172
      0.229949266 0.130462438 0.150304541 0.11580158 0.142511427
      0.18499586 0.103212975 0.135219201 0.105900116 0.201021418
      0.20312497 0.151074991 0.108722895 0.104164571 0.139692485
      0.090253599 0.109984323 0.229949266 0.229949266 0.242847398
      0.157078803 0.182608142 0.242847398 0.242847398 0.0689488649
      0.110122345 0.193220541 0.240768611 0.219921604 0.096180588
      0.180315182 0.227306515 0.242847398 0.0728393048 0.111829072
      0.112607226 0.124864817 0.242847398 0.143137321 0.108553641
      0.116511278 0.230826706 0.087978512 0.0859471783 0.212415725
      0.242847398 0.196685895 0.048248291 0.0643377826 0.0856553465
      0.201039016 0.0608031116 0.0293612983 0.0398672484 0.164950505
      0.27140817 0.184608057 0.27140817 0.27140817 0.27140817
      0.0379667245 0.195331976 0.0849794969 0.163995296 0.27140817
      0.232604936 0.25319317 0.27140817 0.27140817 0.105528198
      0.0791690722 0.0813048258 0.124002382 0.186574236 0.0387948491
      0.0546983927 0.0573575832 0.118510321 0.0216843169 0.0188738182
      0.0124410754 0.141333103 0.0885616913 0.111834385 0.0286161415
      0.169539109 0.27140817 0.0984741822 0.0281980578 0.0342568979
      0.0584591739 0.125863165 0.126495957 0.0458010323 0.0997248441
      0.253774822 0.0961363763 0.0164260529 0.0876719579 0.127706036
      0.253774822 0.124663815 0.0249235462 0.0581309088 0.253774822
      0.115416795 0.127350494 0.174447119 0.253774822 0.136277989
      0.171433464 0.0265581384 0.15533182 0.253774822 0.183903411
      0.0225189105 0.0665121153 0.109431528 0.253774822 0.174185112
      0.0796398893 0.172097787 0.253774822 0.253774822 0.188884556
      0.188267514 0.253774822 0.165581465 0.0348527841 0.0106552877
      0.0290764552 0.120812498 0.10032884 0.198453858 0.130219027
      0.174347371 0.0905337781 0.0187615212 0.0111875031 0.226099983
      0.282385617 0.0665123537 0.061274033 0.0221792366 0.0214070436
      0.254635066 0.0729536116 0.112015799 0.120639808 0.282385617
      0.260301113 0.282385617 0.209116563 0.180640668 0.263278872
      0.0525890552 0.100050911 0.282385617 0.282385617 0.146239758
      0.193125874 0.0604589172 0.0523974784 0.0412631817 0.014128658
      0.0194945056 0.315253437 0.351789683 0.172162026 0.0254779458
      0.0153379114 0.0173449945 0.0101957405 0.00972231571 0.0236833151
      0.130115435 0.351789683 0.285834134 0.00844042189 0.0117001971
      0.0148187857 0.100118376 0.0342602283 0.12496648 0.351789683
      0.351789683 0.183411673 0.128802374 0.0177053213 0.0177745689
      0.00947483443 0.0152626252 0.0517988726 0.16297929 0.351789683
      0.190239817 0.0414187722 0.0135345841 0.00797045324 0.00385793485
      0.00434054481 0.00814513024 0.0943065211 0.41863203 0.209479585
      0.00147994375 0.00136260223 0.00206179637 0.0182498787
      0.0243583787 0.0109429937 0.0758017749 0.41863203 0.262968689
      0.00306203077 0.0028503295 0.0112841418 0.00323623396
      0.00327329338 0.0134088853 0.0853194818 0.41863203 0.206378102
      0.0192046836 0.00442359224 0.0038776705 0.0155815948 0.00908662658
      0.00229152967 0.0462835692 0.41863203 0.333864093 0.026184164
      0.0209641866 0.0171738975 0.0481391363 0.0534850471 0.0269160923
      0.0311446879 0.416758388 0.247082397 0.023939874 0.013249361
      0.038984295 0.014495234 0.0109989094 0.00724588521 0.0918797329
      0.416758388 0.14320074 0.021251779 0.00755237183 0.0174309332
      0.035172306 0.0174580961 0.00155996671 0.0136644384 0.416758388
      0.361297041 0.0656977445 0.0471356735 0.0439261831 0.00806879904
      0.00254427199 0.000126425613 0.126728073 0.416758388 0.206447169
      0.0311797392 0.0109000243 0.0132098952 0.289357066 0.203710139
      0.0859692171 0.0148379169 0.0163226053 0.00142568431 0.00177947071
      0.00301575405 0.175260693 0.152599633 0.0939253047 0.0609995499
      0.0163597092 0.0216056649 0.00505238026 0.00523055159
      0.00362837478 0.100860685 0.345123231 0.269767255 0.223542094
      0.00862325449 0.0146526983 0.003929317 0.00433950173 0.00180612376
      0.251015782 0.345123231 0.345123231 0.345123231 0.0177064911
      0.0282327142 0.0201929286 0.0046026716 0.0523923337 0.345123231
      0.0639351234 0.0330905654 0.0321776196 0.00656538457 0.00902928039
      0.00333952322 0.00391774299 0.00290486845 0.048156973 0.185219288
      0.111555733 0.0855665728 0.00539390882 0.00694820471 0.00233446667
      0.00373522285 0.00269154529 0.099630408 0.33925274 0.33925274
      0.33925274 0.0167255439 0.0236072056 0.0251827128 0.0029586968
      0.0292885378 0.33925274 0.33925274 0.33925274 0.33925274
      0.0193546657 0.0137165431 0.0121147344 0.00223214086 0.0043952046
      0.33925274 0.206155881 0.103429973 0.118516043 0.00318028079
      0.00322275097 0.000517299573 0.000793522282 0.000705397455
      0.121170931 0.290292263 0.156775773 0.290292263 0.00346142403
      0.00261564623 4.77113099e-05 0.000359048339 0.000877378625
      0.287194192 0.290292263 0.277818412 0.290292263 0.00874752551
      0.0012137224 7.12725014e-05 0.000297110935 0.000813717314
      0.290292263 0.290292263 0.237901375 0.290292263 0.00695560779
      0.00274053612 0. 6.80892408e-05 0.000695205061 0.290292263
      0.275470465 0.177020878 0.275470465 0.00168227381 0.00234734686
      3.88981898e-05 0.000383648701 0.00157163432 0.275470465
      0.275470465 0.275470465 0.275470465 0.000690733024 0.00122569012
      0.000583472778 0.000277109124 0.00306326197 0.275470465
      0.275470465 0.158230707 0.275470465 0.0050378819 0.00522101903
      0.000341575709 0.000102569094 0.000975442119 0.275470465
      0.275470465 0.125606224 0.218028128 0.00651708199 0.0132896686
      0.00218333933 0.000617990561 0.00399478618 0.206204206 0.332397491
      0.332397491 0.332397491 0.00179230398 0.000664382125
      0.000598643848 0.000305592868 0.00739620999 0.332397491
      0.332397491 0.332397491 0.319493204 0.00274213636 0.00243420526
      0.00025717626 0.000881319284 0.0142554846 0.332397491 0.228100359
      0.113255911 0.13439247 0.00773429219 0.0154898344 0.00342773832
      0.0028261689 0.00550722145 0.142607793 0.0904424116 0.0615936257
      0.0460451879 0.00577947451 0.0084177563 0.0026777687 0.00414406322
      0.0035829416 0.055406969 0.34260118 0.34260118 0.34260118
      0.00541632064 0.0230916422 0.00581790507 0.00656901021
      0.0253965221 0.34260118 0.34260118 0.34260118 0.300369948
      0.0470566712 0.081755206 0.0519269519 0.0560575612 0.0603054762
      0.34260118 0.0586334616 0.0388069525 0.0229299515 0.00478321034
      0.0426650122 0.010630847 0.0145544996 0.00735193118 0.0579644181
      0.0930018574 0.0293460917 0.0202121343 0.0495316386 0.100475632
      0.0748701692 0.116652764 0.0878925174 0.0678938702 0.152471676
      0.185935825 0.141216278 0.0856459737 0.0917093232 0.0612705797
      0.0422920249 0.0401545763 0.165082082 0.169677287 0.243476197
      0.201372996 0.191212744 0.243476197 0.182906091 0.177259222
      0.0869637728 0.224339277 0.089831613 0.0699902251 0.0533654131
      0.159776241 0.16033861 0.116496056 0.0790015087 0.0748357102
      0.099436149 0.197925627 0.201066241 0.207252279 0.243476197
      0.243476197 0.235023424 0.167795688 0.190467238 0.243476197
      0.111855194 0.148622736 0.0957833603 0.170735195 0.202453092
      0.146133989 0.180107102 0.123026073 0.177665785 0.119545154
      0.138150245 0.0681708902 0.143122151 0.157200009 0.187385634
      0.204978138 0.219454288 0.222566172 0.155225769 0.146731183
      0.127914429 0.179966569 0.18324858 0.139741719 0.172956496
      0.163703606 0.188577935 0.135650873 0.130525246 0.11758364
      0.195517212 0.16062279 0.215160117 0.222566172 0.172423482
      0.216139793 0.144701928 0.127355158 0.0614009798 0.149815693
      0.202246174 0.145906359 0.181329995 0.209137246 0.231977865
      0.188554972 0.0596151315 0.0304655619 0.104827121 0.231977865
      0.0840385258 0.0552713722 0.0986205414 0.184321806 0.137176633
      0.124956615 0.132523492 0.197540864 0.210068554 0.231977865
      0.231977865 0.231977865 0.223683909 0.153923199 0.0667778403
      0.0740982369 0.0955514088 0.231977865 0.136221722 0.159898385
      0.231977865 0.204655752 0.315914482 0.0526553169 0.0187752899
      0.142905891 0.315914482 0.0819692314 0.040807277 0.0722875148
      0.315914482 0.123219185 0.137574479 0.0214093197 0.209107369
      0.315914482 0.125569567 0.0595453829 0.0741533488 0.0885967761
      0.226025984 0.0550638959 0.0505967923 0.0999883786 0.315914482
      0.0843506753 0.107053846 0.17370142 0.250977069 0.0549730398
      0.0438266173 0.0405482426 0.229511097 0.315914482 0.07723625
      0.0444418713 0.0371016189 0.0540835373 0.114034235 0.118215211
      0.0256075431 0.140636608 0.263766706 0.144243076 0.0309107155
      0.0765329227 0.0954359323 0.242805511 0.208566383 0.249486342
      0.210435107 0.263766706 0.263766706 0.0854143202 0.112617776
      0.229703486 0.0716872737 0.0364976935 0.0526001379 0.158000737
      0.263766706 0.0766233653 0.0404919945 0.0753158852 0.0667686239
      0.227244735 0.179595143 0.263766706 0.130888507 0.263766706
      0.108891375 0.0486442149 0.0918174759 0.19631657 0.214488581
      0.146959409 0.259463161 0.204164937 0.259463161 0.259463161
      0.175084576 0.112367757 0.157775804 0.209159717 0.054280445
      0.190283716 0.259463161 0.259463161 0.208245724 0.172172382
      0.0517326631 0.109648079 0.168038353 0.156251207 0.259463161
      0.0922788754 0.13842383 0.0694395453 0.0148562202 0.027208766
      0.175201938 0.0833226964 0.0286928304 0.0587800443 0.151762158
      0.259463161 0.0897306278 0.0382697061 0.0586193986 0.118645318
      0.0664762035 0.0448719449 0.161237046 0.301008552 0.301008552
      0.256707489 0.172241762 0.0221288856 0.037510097 0.00769298384
      0.0189428627 0.0690163895 0.158409819 0.301008552 0.289308578
      0.0784606561 0.0239582025 0.0182059463 0.0395635888 0.0356048122
      0.050634101 0.261712581 0.301008552 0.193556786 0.0767986104
      0.0665623993 0.048728101 0.0121591724 0.0169820935 0.0689171031
      0.256967604 0.301008552 0.301008552 0.0754875466 0.0311371814
      0.0219834112 0.00123917288 0.00350875361 0.0185484551 0.0831177682
      0.352283061 0.28246659 0.0335238501 0.011977667 0.00781327579
      0.00191544462 0.00138833444 0.00188184332 0.0557130948 0.352283061
      0.352283061 0.0339822918 0.0200631861 0.00446015876 0.000208264479
      0.00207544491 0.0279448461 0.146491274 0.352283061 0.352283061
      0.0345073789 0.00833614543 0.00362354284 0. 0.000583613582
      0.00040149127 0.104268923 0.352283061 0.352283061 0.0168714691
      0.00294632581 0.000386030297 0.00250840001 0.000339680351
      0.00011925077 0.0162686594 0.412630409 0.310694247 0.0366777666
      0.0244090781 0.00533986418 0.000982395024 3.00895263e-05 0.
      0.0848951563 0.412630409 0.15538007 0.0104334643 0.00260471669
      0.00141086278 0. 9.51328984e-05 5.42048911e-05 0.0327011831
      0.412630409 0.38152647 0.0105543314 0.00197122223 0.
      0.000607791124 0. 0.000137046532 0.081957154 0.412630409
      0.176397398 0.00113215519 0.000131414825 0.000607791124
      0.273939341 0.273939341 0.273939341 0.00186425215 0.00146826555
      0.00121349539 0.000859396765 0.000264333503 0.273939341
      0.273939341 0.273939341 0.273939341 0.00521746464 0.00551426644
      0.00717976876 0.000918709789 0.0233478639 0.273939341 0.273939341
      0.204404801 0.250781596 0.00396580156 0.00155745831 0.000928948342
      0.00015570689 0.000887292961 0.251164317 0.262318105 0.172375336
      0.156123236 0.00598557526 0.00270218123 0.00405246252
      0.00375727797 0.00492548104 0.174476355 0.331425101 0.331425101
      0.331425101 0.0135167558 0.0241118893 0.0283186454 0.00139121513
      0.0405406281 0.331425101 0.331425101 0.331425101 0.331425101
      0.0193907749 0.0188180413 0.0145866778 0.000741813215
      0.00388820493 0.331425101 0.186793432 0.173329055 0.101417452
      0.00570844999 0.0062420615 0.00750864809 0.00758165726
      0.0104441559 0.144373626 0.0796292052 0.0594370291 0.0467260256
      0.0155787328 0.0120400311 0.00452633807 0.0025190406 0.00313080405
      0.0702699423 0.366809934 0.366809934 0.366809934 0.0284147225
      0.00912087876 0.0024556024 0.000706596475 0.00165285508
      0.366809934 0.366809934 0.206988588 0.366809934 0.0149260778
      0.0141196484 0.000117936026 0.000443800964 0.00199685246
      0.366809934 0.0432831757 0.0253873561 0.0420266613 0.0391551033
      0.0201297048 0.00626923377 0.00254341471 0.00157243956
      0.0417907089 0.0214805976 0.0253740288 0.0224383697 0.0178474206
      0.0124276774 0.00168134854 0.00237089349 0.00184076675 0.014401854
      0.366959959 0.236315519 0.366959959 0.0514566749 0.0952234715
      0.00966911484 0.00076818408 0.00329797692 0.366959959 0.366959959
      0.10310147 0.152285352 0.106432177 0.34809801 0.0698536038
      0.0107713807 0.0270720907 0.329418421 0.0465667322 0.049568139
      0.0738523751 0.0307504591 0.0597674623 0.00646127574 0.0044759619
      0.00223423191 0.029195765 0.134575278 0.0457747281 0.068375282
      0.0742135197 0.205271766 0.0507721491 0.0139668267 0.00863134209
      0.136291385 0.343522251 0.11185161 0.0891679302 0.134633988
      0.476614147 0.117648564 0.0422920883 0.0520231202 0.297715694
      0.0846441612 0.105007596 0.0970905721 0.0556409545 0.109205723
      0.0455428213 0.0616514906 0.0470705964 0.0794876963 0.183611766
      0.0855818093 0.0829581171 0.100649737 0.28644228 0.095839195
      0.0472405627 0.0192050375 0.190585971 0.257214755 0.173053205
      0.133830428 0.148008823 0.178797722 0.113421082 0.132219762
      0.179825589 0.169330999 0.0757635832 0.0428809263 0.0471669845
      0.0272044335 0.075684078 0.022007145 0.0326398872 0.0255202316
      0.0942635238 0.22741513 0.102480985 0.0709591061 0.105475053
      0.198943153 0.111552715 0.159787446 0.131010488 0.223977625
      0.262504011 0.105115883 0.1087313 0.146004841 0.147023097
      0.0640512407 0.0888692886 0.11800167 0.123984948 0.303144753
      0.194271088 0.192691773 0.224182323 0.340905994 0.225072876
      0.208880112 0.254631042 0.278554291 0.0692633092 0.0563809685
      0.0316297039 0.151164517 0.228518188 0.13313444 0.0558637679
      0.0424387194 0.0902662724 0.164620563 0.223554954 0.150488794
      0.253160149 0.253160149 0.244717225 0.151016265 0.217054784
      0.253160149 0.0637036711 0.0835447907 0.0640738308 0.0980642214
      0.173590392 0.0886420831 0.0868270397 0.110751033 0.113779828
      0.171720475 0.253160149 0.118202247 0.214637771 0.253160149
      0.114277571 0.154141158 0.239289254 0.23138617 0.1624946
      0.111080118 0.080341585 0.163138345 0.204408586 0.0909430534
      0.139612108 0.196040228 0.179328442 0.1965186 0.0970101953
      0.109784715 0.218281552 0.20315814 0.173607334 0.198080659
      0.166273996 0.19906038 0.137447581 0.12267042 0.0773352087
      0.113043688 0.168907806 0.0987236649 0.123306639 0.188755423
      0.170171589 0.12895219 0.194525167 0.226376563 0.159845442
      0.226376563 0.211179942 0.205184177 0.193492293 0.150741816
      0.134584621 0.0798473433 0.113190986 0.153488025 0.200695157
      0.232612804 0.166581109 0.187111259 0.182241529 0.137947872
      0.0328586884 0.0510381348 0.0628442913 0.228857785 0.156117052
      0.0780918077 0.13757737 0.200720862 0.105248354 0.232612804
      0.232612804 0.1348809 0.232612804 0.232612804 0.143320173
      0.155876487 0.152655125 0.165980399 0.208289012 0.172096848
      0.137673005 0.232612804 0.163906708 0.0456084423 0.0997554585
      0.226656273 0.177398384 0.0384776555 0.0645704642 0.0594069734
      0.298200399 0.129224703 0.10213656 0.103725895 0.214099839
      0.0314096138 0.0280329827 0.0603809096 0.20754765 0.298200399
      0.0782628208 0.0463314243 0.0385928676 0.0623475164 0.257690459
      0.21351409 0.252856344 0.225026995 0.298200399 0.239458174
      0.113203093 0.0835522041 0.243525222 0.0469128452 0.109275877
      0.0972001776 0.160811707 0.298200399 0.155611187 0.0751166791
      0.0405451506 0.104151428 0.0465765111 0.0260045938 0.0721875429
      0.282767326 0.305604786 0.122158945 0.0673156977 0.109586798
      0.116450943 0.16527243 0.144907311 0.176296517 0.167412281
      0.305604786 0.13312307 0.0719050243 0.117824003 0.170856014
      0.0437336937 0.039356716 0.0715171099 0.305604786 0.305604786
      0.0839304104 0.0706100762 0.0533897839 0.2014893 0.0793868825
      0.111773714 0.111767307 0.305604786 0.305604786 0.0728010684
      0.0443898998 0.0390932374 0.16128929 0.292267263 0.198802248
      0.165602714 0.0409751683 0.0648922175 0.0373249389 0.0462244973
      0.0668365881 0.21882233 0.133860454 0.0266942866 0.039036151
      0.299310744 0.35070315 0.0802136883 0.125504002 0.204463392
      0.171059117 0.195588782 0.193916291 0.0740739629 0.1064303
      0.123071857 0.0371502005 0.0443757884 0.0508730002 0.0806983858
      0.0905933753 0.0602965578 0.113925643 0.245164901 0.35070315
      0.156540871 0.220076606 0.206337497 0.112556569 0.0121850222
      0.00986555871 0.0417805091 0.263767451 0.312141269 0.105538562
      0.0521242432 0.0648787022 0.0236811526 0.00398348412 0.0040719551
      0.040993914 0.294862568 0.312141269 0.307538003 0.10851483
      0.0246206801 0.00989212375 0.0040022647 0.0307361335 0.142205447
      0.30741179 0.312141269 0.104966506 0.105634168 0.09228836
      0.0253855027 0.00985340402 0.0210327711 0.086480841 0.312141269
      0.312141269 0.210612088 0.146368742 0.0522908531 0.0160298515
      0.000116659401 0.00028595241 0.00920516625 0.13378875 0.380232751
      0.262543768 0.0450838655 0.0052003935 0.00066307286 7.16555041e-06
      1.90634928e-05 0.000108689339 0.0876370221 0.380232751 0.326067716
      0.00421129027 0.000129147316 3.40196893e-05 0.00649664272
      0.00685217371 0.00884229317 0.138797835 0.380232751 0.208609939
      0.0527240634 0.0155371288 0.00503041642 0.000433109555
      0.000456811598 0.000470987114 0.109605648 0.380232751 0.369973242
      0.00269613694 0.00186905579 0.000273101468 0. 0. 0. 0.0206004232
      0.436210543 0.280842036 0.000521608221 0. 0. 0.000488892314 0.
      0.000335780176 0.0498274565 0.436210543 0.150080189 1.49487678e-05
      0. 0.000488892314 0. 0. 0. 0.0283798799 0.436210543 0.306598395 0.
      0. 0. 0.000593961682 0. 0.000152627355 0.0350578576 0.436210543
      0.184883535 0. 0. 0.000593961682 0.342195898 0.131363735
      0.0565763973 0.00601249374 0.00555436639 0.00196175277
      0.000340135535 0.00395661639 0.255763978 0.342195898 0.0514387637
      0.0156105058 0.0045351712 0.00514946133 0.00603028946
      0.00372221181 0.00632715225 0.342195898 0.342195898 0.245428741
      0.0420159139 0.0402933471 0.0456250384 0.0266663618 0.00755778654
      0.0231718142 0.342195898 0.342195898 0.0858907998 0.025407454
      0.0334589742 0.0590495169 0.0555464178 0.0531349778 0.0485789627
      0.342195898 0.302733153 0.0254103057 0.00711380783 0.00371856662
      0.00899827015 0.0121498071 0.0117953615 0.0310120434 0.302733153
      0.211226344 0.0315051824 0.0136133591 0.0091863554 0.0251950659
      0.0350282677 0.0671813563 0.131937116 0.302733153 0.302733153
      0.0333734863 0.0290522035 0.0566498749 0.0994406566 0.089726463
      0.0979355872 0.115637928 0.302733153 0.265762478 0.0385574475
      0.0211719796 0.0495167933 0.23229304 0.222303957 0.26240629
      0.286474138 0.302733153 0.0970463902 0.0183773525 0.0222864579
      0.0308995526 0.082116127 0.0832510814 0.134568542 0.188835233
      0.219417989 0.0198253617 0.0126920464 0.0156409554 0.016479075
      0.0349582583 0.0163142141 0.0253555253 0.0118648522 0.0202485099
      0.18085292 0.020734705 0.0450903177 0.0624759011 0.346188396
      0.346188396 0.346188396 0.346188396 0.346188396 0.191013098
      0.0153421843 0.0345065035 0.0401019976 0.321253121 0.148092881
      0.170821682 0.0512487255 0.176715031 0.0445111506 0.0340492725
      0.0688789934 0.0227887873 0.0518670194 0.00539448019 0.0126322554
      0.00585050602 0.0305444021 0.0341969356 0.0363615379 0.075514324
      0.0477894694 0.0674597919 0.0140144797 0.0248085037 0.00844014902
      0.0316534936 0.420370817 0.0725340471 0.0733577162 0.0713396668
      0.210855946 0.0712687224 0.0437249802 0.0233994182 0.420370817
      0.420370817 0.415069729 0.145090252 0.0610367768 0.13006261
      0.0229366329 0.0229892191 0.0143851144 0.391833931 0.0242696311
      0.0261103883 0.0269658603 0.0197220799 0.0308464598 0.00967889745
      0.022582978 0.00632362301 0.0212548096 0.0960664004 0.079536587
      0.093363896 0.0959491283 0.0646171421 0.050374411 0.0504322387
      0.0546171218 0.0461496226 0.377477497 0.373806626 0.0845362097
      0.0235564057 0.0286853779 0.013488166 0.0239071194 0.040100459
      0.350092858 0.377477497 0.377477497 0.152852789 0.0762982592
      0.0563570224 0.103632763 0.0739262253 0.228566036 0.377477497
      0.111563675 0.0485358723 0.0631704405 0.0966335386 0.0774103701
      0.0445531234 0.0458547287 0.055534713 0.0440479107 0.149891198
      0.0738448128 0.121062443 0.115258828 0.167567104 0.139720052
      0.121156074 0.186132938 0.0868782774 0.272724599 0.167607039
      0.0942416638 0.122076489 0.084839642 0.101313882 0.0971714184
      0.190762758 0.272724599 0.272724599 0.152701616 0.201988846
      0.272724599 0.272724599 0.213875592 0.21914278 0.272724599
      0.272724599 0.0685163736 0.0576602407 0.10682857 0.0785070211
      0.113428541 0.113491289 0.11722897 0.21149388 0.0878729969
      0.124383993 0.132108569 0.137491345 0.114021711 0.133065581
      0.0926491916 0.119827688 0.21081005 0.15386425 0.177591592
      0.118924916 0.194317043 0.217735842 0.195322067 0.187566876
      0.139919698 0.238174245 0.140516087 0.24857381 0.178398505
      0.24857381 0.24857381 0.24857381 0.227464572 0.106317468
      0.166795552 0.190553322 0.0710241944 0.101893403 0.126189783
      0.0534873456 0.0798665807 0.0906868279 0.0775614753 0.0845702365
      0.0840970352 0.0626372918 0.25346455 0.25346455 0.0972780362
      0.162796095 0.189227208 0.1472532 0.130567476 0.0941858962
      0.233650386 0.157662973 0.243294805 0.167410508 0.175902754
      0.12590234 0.0659178123 0.0771014616 0.0908515304 0.171553001
      0.253024399 0.25346455 0.25346455 0.229686961 0.229175404
      0.140234619 0.219679803 0.222434476 0.0604564101 0.227535978
      0.231157169 0.112713143 0.1666677 0.165369704 0.142727181
      0.0727355257 0.0880884454 0.091472514 0.174720749 0.193100706
      0.165545121 0.200141147 0.0995295048 0.124671109 0.0895263404
      0.131667554 0.108163558 0.18138063 0.231157169 0.201295018
      0.135208264 0.184818819 0.231157169 0.18693763 0.141766354
      0.137202337 0.138037696 0.155636743 0.180225417 0.218352869
      0.156355977 0.231157169 0.231157169 0.141740426 0.0997551158
      0.155465156 0.237512872 0.216401994 0.250231057 0.0947348848
      0.115035973 0.112048745 0.0973242372 0.0319041014 0.123386256
      0.0873963088 0.14110142 0.215126351 0.0534141995 0.0241849162
      0.0133248838 0.0268171914 0.148108676 0.166709617 0.186624661
      0.271930426 0.271930426 0.188373983 0.271930426 0.271930426
      0.263741821 0.0646137595 0.153199479 0.136019006 0.271930426
      0.217422277 0.0182205178 0.0140656428 0.0338074677 0.0651280135
      0.026825171 0.0570254773 0.0506069846 0.337061018 0.337061018
      0.0677195266 0.0369365141 0.0144068561 0.0586790703 0.0339351818
      0.073197782 0.0672663748 0.337061018 0.337061018 0.0681858882
      0.0246730316 0.010826624 0.0415006652 0.0377695262 0.0812705979
      0.0668067485 0.337061018 0.337061018 0.0805634782 0.0266151968
      0.0161579307 0.0686974898 0.0285952985 0.0404777676 0.057048399
      0.337061018 0.337061018 0.125759244 0.0377844609 0.0218239091
      0.0733608007 0.113475457 0.15124917 0.0588850006 0.111881316
      0.253987849 0.0736402497 0.0412572473 0.0451577045 0.0662017837
      0.0448992811 0.0562217161 0.114683315 0.202157244 0.377773553
      0.324906826 0.237464532 0.135916427 0.0765575692 0.0600018725
      0.0546592101 0.0501278974 0.0935427547 0.301436305 0.13352704
      0.0451007672 0.0369809233 0.0660279766 0.0327749103 0.0333354175
      0.0450002663 0.205274954 0.377773553 0.377773553 0.101880245
      0.0323753133 0.0269500632 0.00768403383 0.0462541133 0.154104009
      0.262904584 0.330179065 0.17994453 0.15138416 0.0701223686
      0.016052153 0.0219554882 0.0411179662 0.104036264 0.279994816
      0.330179065 0.215668336 0.115755998 0.0426188298 0.0248565115
      0.0405199043 0.0705125555 0.0745327175 0.206648111 0.330179065
      0.208581954 0.0830869153 0.0157845337 0.0142915882 0.0709417611
      0.0765612125 0.0816561878 0.207169771 0.330179065 0.275082439
      0.0862835199 0.0347968675 0.0284237377 0.0107070403 0.008326184
      0.00628785556 0.112590171 0.397723317 0.200121701 0.0221855715
      0.0165237673 0.0136910202 0.000671222748 0.000463306496
      0.000185155892 0.0903952792 0.397723317 0.344642431 0.0021704284
      0.00348445727 0.000899969775 0.0218891054 0.012799277 0.0232936144
      0.121418528 0.397723317 0.244140714 0.0449467823 0.0198999867
      0.0107843578 0.00171073119 0.00674250489 0.00853934139
      0.0823266357 0.397723317 0.310246646 0.0346513391 0.00190766284
      0.000646754226 0. 0. 0. 0.0275151916 0.455978632 0.230723843
      0.000168478451 0. 0. 0.000470793137 0. 0. 0.0216825809 0.455978632
      0.162503406 0. 0. 0.000470793137 0. 0.00115742953 0.000862402783
      0.0247770548 0.455978632 0.212627143 0.00536782946 0. 0.
      0.000477900525 0. 0. 0.016717108 0.455978632 0.19177036
      5.39072826e-05 0. 0.000477900525 0.25733 0.111749053 0.0580741726
      0.0657087117 0.107912451 0.0858895853 0.0638940483 0.0613539368
      0.25733 0.25733 0.0475326329 0.0812783092 0.105394736 0.238652796
      0.11844375 0.115641885 0.10724847 0.25733 0.25733 0.134401917
      0.100811735 0.102165051 0.0771230459 0.13257663 0.25733
      0.103548229 0.25733 0.228255913 0.138714969 0.126890481
      0.152365267 0.25733 0.173804253 0.128592387 0.0909164548 0.25733
      0.137538731 0.0142604224 0.0487334579 0.133523896 0.253679097
      0.0946840644 0.107168093 0.101177618 0.244971141 0.0734321326
      0.0360501707 0.0670564994 0.118648551 0.253679097 0.186686963
      0.164139569 0.126482606 0.208591551 0.190575257 0.0762543157
      0.074098289 0.130972505 0.253679097 0.134863019 0.0896744356
      0.0882851407 0.253679097 0.253679097 0.225083694 0.215668082
      0.17157416 0.253679097 0.0998191014 0.106851593 0.153647259
      0.253679097 0.150609151 0.0427614897 0.0537205115 0.0360808894
      0.197825208 0.175930709 0.141050592 0.0737435967 0.186590195
      0.304784477 0.0879086852 0.0338147394 0.0220328234 0.0739960223
      0.0913618729 0.0615086779 0.0609691255 0.304784477 0.304784477
      0.225063741 0.166267544 0.0912604332 0.0583650619 0.0808845833
      0.0954117775 0.109390087 0.304784477 0.304784477 0.304784477
      0.144870535 0.0403639227 0.0395353697 0.0693732947 0.0594415106
      0.0831478909 0.304784477 0.334449917 0.0492992736 0.0095229866
      0.00507800234 0.00895536784 0.0161234178 0.00687720673
      0.0281304065 0.277983814 0.352407753 0.129769564 0.0198327433
      0.00221421244 0.00388500327 0.000648153713 0.000768173544
      0.00704984041 0.276680231 0.352407753 0.173016518 0.0627010763
      0.0197934024 0.0563116446 0.0152702481 0.00699940929 0.0375883244
      0.352407753 0.352407753 0.170850277 0.0321994945 0.0337377526
      0.13382262 0.00401814003 0.000699693046 0.0198872071 0.352407753
      0.321524829 0.189457744 0.0320849754 0.000837953761 0.000916296151
      0.000831251265 0.000882773951 0.0212375615 0.253880203 0.321524829
      0.165574387 0.0187171008 0.00284650596 0.00361630553 0.0224386081
      0.0127324825 0.0899341851 0.321524829 0.321524829 0.250321805
      0.0673143417 0.0107043916 0.102556266 0.0102517158 0.00270080776
      0.0300052781 0.321524829 0.321524829 0.177673429 0.0372867323
      0.0254312754 0.117443666 0.0562734492 0.0140129421 0.0718925521
      0.321524829 0.266117334 0.215237349 0.0651820973 0.0291649848
      0.0187534187 0.0738214254 0.0380746797 0.15223062 0.266117334
      0.199782282 0.171871468 0.162370652 0.145027369 0.103815839
      0.0817436129 0.0900840238 0.152149469 0.180765733 0.266117334
      0.266117334 0.113981351 0.0787099749 0.0974285826 0.099778004
      0.0310945138 0.113517135 0.266117334 0.266117334 0.266117334
      0.230547816 0.192394227 0.166447431 0.076888375 0.0660203248
      0.0982272848 0.176719695 0.18534179 0.114207618 0.213870674
      0.201515034 0.12559633 0.0828059539 0.103117526 0.0654451996
      0.0987088382 0.234661654 0.141018122 0.213019535 0.193111688
      0.160199448 0.150478303 0.107351497 0.0468357131 0.16982542
      0.234661654 0.198303998 0.219522625 0.221376836 0.185480058
      0.0722216517 0.111062072 0.0491539538 0.121616028 0.234661654
      0.234661654 0.192270517 0.168455347 0.144035473 0.185260028
      0.160906717 0.0735258833 0.213405013 0.231419474 0.120134033
      0.148651659 0.146312594 0.173945636 0.105619237 0.0793339834
      0.0986037403 0.168778405 0.183928087 0.0955694318 0.190305188
      0.231419474 0.231419474 0.156179428 0.0791978464 0.161894739
      0.219171911 0.231419474 0.156661272 0.100584939 0.128942788
      0.157132387 0.124356575 0.0787110701 0.138807803 0.231419474
      0.231419474 0.0616746955 0.124537222 0.20804055 0.231419474
      0.185195848 0.0666592345 0.173467934 0.215707809 0.180444285
      0.114393093 0.210069612 0.219111323 0.117868349 0.11880333
      0.126374885 0.138892204 0.139283404 0.218867555 0.145545304
      0.179442957 0.132015675 0.163608968 0.118059784 0.177321211
      0.182788417 0.178733408 0.223622158 0.0828387141 0.163963497
      0.148742616 0.223622158 0.160126433 0.132229269 0.142509773
      0.120265946 0.223622158 0.144848362 0.186783761 0.117459185
      0.210123762 0.118346028 0.164587677 0.179950356 0.223622158
      0.215570867 0.172510609 0.13575834 0.151071012 0.264944404
      0.163501903 0.143624336 0.234934777 0.264944404 0.0552699491
      0.0581413582 0.0617446043 0.12140809 0.218468174 0.0407609008
      0.00786754489 0.0304498766 0.0679838583 0.264944404 0.154063076
      0.235962436 0.175235525 0.264944404 0.182004422 0.110950634
      0.241793811 0.264944404 0.104996696 0.0437948368 0.0772223398
      0.101168722 0.264944404 0.0998432711 0.0215288978 0.0786073282
      0.127981365 0.0377981514 0.0404261984 0.0627553686 0.242397413
      0.345664829 0.104561381 0.0467043892 0.0515007786 0.139350593
      0.0382375754 0.0268419608 0.0701776668 0.23299852 0.345664829
      0.169453591 0.0708321556 0.0648496076 0.161025882 0.0554391779
      0.0220360681 0.066500932 0.172877431 0.345664829 0.214103252
      0.0496572666 0.0459319986 0.0812722594 0.0664110035 0.0429143012
      0.0800370276 0.218043178 0.345664829 0.345664829 0.0676038265
      0.0594787821 0.0986020342 0.0452434197 0.023342533 0.0514181145
      0.0753177032 0.270672023 0.105319761 0.0418337584 0.0362546183
      0.0752494931 0.0220182259 0.0188872479 0.0295871068 0.155761823
      0.360028595 0.207348749 0.0278461557 0.0305778664 0.0458139665
      0.22699599 0.132858872 0.0574637353 0.0969721526 0.360028595
      0.162392318 0.0374163762 0.0494189821 0.176306635 0.360028595
      0.221363753 0.0840838477 0.16402486 0.360028595 0.126113579
      0.0174239837 0.0711214095 0.23178421 0.0240700487 0.0412831381
      0.029736679 0.153494924 0.346388936 0.132765517 0.0133683318
      0.0376036204 0.0460784696 0.0466488488 0.0469288342 0.052909974
      0.210765362 0.346388936 0.215919688 0.0496873781 0.0602182262
      0.0458804406 0.130843997 0.153684288 0.0610615015 0.204215512
      0.346388936 0.144465417 0.0239453726 0.0955094248 0.126701072
      0.0663509294 0.0882714614 0.0636667013 0.317197025 0.346388936
      0.261602759 0.129274562 0.103572071 0.128756434 0.023015283
      0.015932668 0.0342428982 0.127266899 0.366685003 0.251098186
      0.0711281523 0.0277429055 0.0156723931 0.00467946101 0.0130820908
      0.0176689923 0.0819510221 0.366685003 0.30004999 0.0513673872
      0.00178272068 0.000939471356 0.0208316892 0.01361732 0.0373057872
      0.142463446 0.366685003 0.287292868 0.119578585 0.0317644067
      0.0376650728 0.00789306499 0.00655284384 0.0180133637 0.106065303
      0.366685003 0.366685003 0.0599599965 0.00475987839 0.0026708045 0.
      0.00148773694 0.00179919717 0.0232861266 0.455473185 0.167881653
      0.00864739809 0. 0. 0.00046834533 0. 0. 0.0176831391 0.455473185
      0.145743161 0.000180543037 0. 0.00046834533 0. 0.000431772321
      0.00089443312 0.0362272635 0.455473185 0.28052485 0.0165059101 0.
      0. 0.00152906415 0. 0. 0.031284824 0.455473185 0.184396476
      0.000854644284 0.000195914996 0.00152906415 0.225112721
      0.143034577 0.197860777 0.165911913 0.0902995691 0.0871383548
      0.179406866 0.0897663459 0.226655826 0.139723599 0.186393172
      0.218179733 0.174158841 0.095270671 0.0821125209 0.0880855992
      0.0390029438 0.159616753 0.13235569 0.217203766 0.265568584
      0.265568584 0.169790223 0.0748046115 0.0823308751 0.0428072214
      0.109830953 0.174968556 0.265568584 0.265568584 0.265568584
      0.165275082 0.124258369 0.108855374 0.0215422492 0.106229864
      0.128789052 0.109191805 0.0841645822 0.113123812 0.133786932
      0.0917952731 0.0839381143 0.0578212887 0.139865875 0.250931621
      0.157816604 0.139634311 0.162192166 0.201899335 0.129768014
      0.06898202 0.104032874 0.250931621 0.192283764 0.180254161
      0.125536442 0.195193008 0.250931621 0.187986672 0.12732242
      0.0398002788 0.15700452 0.250931621 0.178113401 0.0873943493
      0.237344012 0.250931621 0.250931621 0.0916187167 0.0544701889
      0.250931621 0.275644869 0.158291116 0.149548545 0.157507688
      0.130538836 0.103335746 0.0607502162 0.121497892 0.275644869
      0.275644869 0.19484818 0.105796807 0.0524312593 0.0667465031
      0.045660872 0.0494003519 0.09834674 0.275644869 0.268618524
      0.0853575915 0.091299668 0.224165648 0.275644869 0.172797695
      0.0294678919 0.0675098076 0.275644869 0.275644869 0.0761724785
      0.0310111735 0.0456742123 0.0956157446 0.0413891524 0.0181410387
      0.0842412189 0.275644869 0.321443707 0.124843143 0.041055508
      0.027833052 0.0884874836 0.00821810309 0.00685173785 0.103404947
      0.321443707 0.321443707 0.0642544106 0.0457899459 0.0731552765
      0.190301254 0.0165189095 0.00880725402 0.195940092 0.321443707
      0.300074726 0.0504277125 0.0033193056 0.0063746646 0.0171599761
      0.00363252894 0.00425170548 0.125519693 0.281908154 0.321443707
      0.0407256782 0.0466905013 0.0499273576 0.0641958266 0.0503082946
      0.0136422422 0.228587195 0.321443707 0.316334814 0.123289764
      0.088361837 0.0869822726 0.234537542 0.0513840318 0.0305046905
      0.133352935 0.316334814 0.316334814 0.0711428747 0.0298316628
      0.0505561456 0.193733916 0.0601636507 0.0261677671 0.0202748738
      0.316334814 0.316334814 0.0920703635 0.0804673731 0.128044307
      0.146009028 0.111937769 0.0499535725 0.137216419 0.316334814
      0.316334814 0.103668191 0.0222970378 0.0549783371 0.0637620538
      0.0417796411 0.039922826 0.02169591 0.173239008 0.296901256
      0.213033468 0.108776413 0.101850487 0.145323619 0.061916925
      0.0242875777 0.0304333214 0.296901256 0.296901256 0.296901256
      0.20912075 0.169484586 0.146880493 0.0388791002 0.0494975634
      0.0634611025 0.193547636 0.296901256 0.190365657 0.0367342345
